{"learner":{"attributes":{},"feature_names":["gender","SeniorCitizen","Partner","Dependents","tenure","PhoneService","MultipleLines","InternetService","OnlineSecurity","OnlineBackup","DeviceProtection","TechSupport","StreamingTV","StreamingMovies","Contract","PaperlessBilling","PaymentMethod","MonthlyCharges","TotalCharges"],"feature_types":["float","int","float","float","int","float","float","float","float","float","float","float","float","float","float","float","float","float","float"],"gradient_booster":{"model":{"gbtree_model_param":{"num_parallel_tree":"1","num_trees":"1000"},"iteration_indptr":[0,1,2,3,4,5,6,7,8,9,10,11,12,13,14,15,16,17,18,19,20,21,22,23,24,25,26,27,28,29,30,31,32,33,34,35,36,37,38,39,40,41,42,43,44,45,46,47,48,49,50,51,52,53,54,55,56,57,58,59,60,61,62,63,64,65,66,67,68,69,70,71,72,73,74,75,76,77,78,79,80,81,82,83,84,85,86,87,88,89,90,91,92,93,94,95,96,97,98,99,100,101,102,103,104,105,106,107,108,109,110,111,112,113,114,115,116,117,118,119,120,121,122,123,124,125,126,127,128,129,130,131,132,133,134,135,136,137,138,139,140,141,142,143,144,145,146,147,148,149,150,151,152,153,154,155,156,157,158,159,160,161,162,163,164,165,166,167,168,169,170,171,172,173,174,175,176,177,178,179,180,181,182,183,184,185,186,187,188,189,190,191,192,193,194,195,196,197,198,199,200,201,202,203,204,205,206,207,208,209,210,211,212,213,214,215,216,217,218,219,220,221,222,223,224,225,226,227,228,229,230,231,232,233,234,235,236,237,238,239,240,241,242,243,244,245,246,247,248,249,250,251,252,253,254,255,256,257,258,259,260,261,262,263,264,265,266,267,268,269,270,271,272,273,274,275,276,277,278,279,280,281,282,283,284,285,286,287,288,289,290,291,292,293,294,295,296,297,298,299,300,301,302,303,304,305,306,307,308,309,310,311,312,313,314,315,316,317,318,319,320,321,322,323,324,325,326,327,328,329,330,331,332,333,334,335,336,337,338,339,340,341,342,343,344,345,346,347,348,349,350,351,352,353,354,355,356,357,358,359,360,361,362,363,364,365,366,367,368,369,370,371,372,373,374,375,376,377,378,379,380,381,382,383,384,385,386,387,388,389,390,391,392,393,394,395,396,397,398,399,400,401,402,403,404,405,406,407,408,409,410,411,412,413,414,415,416,417,418,419,420,421,422,423,424,425,426,427,428,429,430,431,432,433,434,435,436,437,438,439,440,441,442,443,444,445,446,447,448,449,450,451,452,453,454,455,456,457,458,459,460,461,462,463,464,465,466,467,468,469,470,471,472,473,474,475,476,477,478,479,480,481,482,483,484,485,486,487,488,489,490,491,492,493,494,495,496,497,498,499,500,501,502,503,504,505,506,507,508,509,510,511,512,513,514,515,516,517,518,519,520,521,522,523,524,525,526,527,528,529,530,531,532,533,534,535,536,537,538,539,540,541,542,543,544,545,546,547,548,549,550,551,552,553,554,555,556,557,558,559,560,561,562,563,564,565,566,567,568,569,570,571,572,573,574,575,576,577,578,579,580,581,582,583,584,585,586,587,588,589,590,591,592,593,594,595,596,597,598,599,600,601,602,603,604,605,606,607,608,609,610,611,612,613,614,615,616,617,618,619,620,621,622,623,624,625,626,627,628,629,630,631,632,633,634,635,636,637,638,639,640,641,642,643,644,645,646,647,648,649,650,651,652,653,654,655,656,657,658,659,660,661,662,663,664,665,666,667,668,669,670,671,672,673,674,675,676,677,678,679,680,681,682,683,684,685,686,687,688,689,690,691,692,693,694,695,696,697,698,699,700,701,702,703,704,705,706,707,708,709,710,711,712,713,714,715,716,717,718,719,720,721,722,723,724,725,726,727,728,729,730,731,732,733,734,735,736,737,738,739,740,741,742,743,744,745,746,747,748,749,750,751,752,753,754,755,756,757,758,759,760,761,762,763,764,765,766,767,768,769,770,771,772,773,774,775,776,777,778,779,780,781,782,783,784,785,786,787,788,789,790,791,792,793,794,795,796,797,798,799,800,801,802,803,804,805,806,807,808,809,810,811,812,813,814,815,816,817,818,819,820,821,822,823,824,825,826,827,828,829,830,831,832,833,834,835,836,837,838,839,840,841,842,843,844,845,846,847,848,849,850,851,852,853,854,855,856,857,858,859,860,861,862,863,864,865,866,867,868,869,870,871,872,873,874,875,876,877,878,879,880,881,882,883,884,885,886,887,888,889,890,891,892,893,894,895,896,897,898,899,900,901,902,903,904,905,906,907,908,909,910,911,912,913,914,915,916,917,918,919,920,921,922,923,924,925,926,927,928,929,930,931,932,933,934,935,936,937,938,939,940,941,942,943,944,945,946,947,948,949,950,951,952,953,954,955,956,957,958,959,960,961,962,963,964,965,966,967,968,969,970,971,972,973,974,975,976,977,978,979,980,981,982,983,984,985,986,987,988,989,990,991,992,993,994,995,996,997,998,999,1000],"tree_info":[0,0,0,0,0,0,0,0,0,0,0,0,0,0,0,0,0,0,0,0,0,0,0,0,0,0,0,0,0,0,0,0,0,0,0,0,0,0,0,0,0,0,0,0,0,0,0,0,0,0,0,0,0,0,0,0,0,0,0,0,0,0,0,0,0,0,0,0,0,0,0,0,0,0,0,0,0,0,0,0,0,0,0,0,0,0,0,0,0,0,0,0,0,0,0,0,0,0,0,0,0,0,0,0,0,0,0,0,0,0,0,0,0,0,0,0,0,0,0,0,0,0,0,0,0,0,0,0,0,0,0,0,0,0,0,0,0,0,0,0,0,0,0,0,0,0,0,0,0,0,0,0,0,0,0,0,0,0,0,0,0,0,0,0,0,0,0,0,0,0,0,0,0,0,0,0,0,0,0,0,0,0,0,0,0,0,0,0,0,0,0,0,0,0,0,0,0,0,0,0,0,0,0,0,0,0,0,0,0,0,0,0,0,0,0,0,0,0,0,0,0,0,0,0,0,0,0,0,0,0,0,0,0,0,0,0,0,0,0,0,0,0,0,0,0,0,0,0,0,0,0,0,0,0,0,0,0,0,0,0,0,0,0,0,0,0,0,0,0,0,0,0,0,0,0,0,0,0,0,0,0,0,0,0,0,0,0,0,0,0,0,0,0,0,0,0,0,0,0,0,0,0,0,0,0,0,0,0,0,0,0,0,0,0,0,0,0,0,0,0,0,0,0,0,0,0,0,0,0,0,0,0,0,0,0,0,0,0,0,0,0,0,0,0,0,0,0,0,0,0,0,0,0,0,0,0,0,0,0,0,0,0,0,0,0,0,0,0,0,0,0,0,0,0,0,0,0,0,0,0,0,0,0,0,0,0,0,0,0,0,0,0,0,0,0,0,0,0,0,0,0,0,0,0,0,0,0,0,0,0,0,0,0,0,0,0,0,0,0,0,0,0,0,0,0,0,0,0,0,0,0,0,0,0,0,0,0,0,0,0,0,0,0,0,0,0,0,0,0,0,0,0,0,0,0,0,0,0,0,0,0,0,0,0,0,0,0,0,0,0,0,0,0,0,0,0,0,0,0,0,0,0,0,0,0,0,0,0,0,0,0,0,0,0,0,0,0,0,0,0,0,0,0,0,0,0,0,0,0,0,0,0,0,0,0,0,0,0,0,0,0,0,0,0,0,0,0,0,0,0,0,0,0,0,0,0,0,0,0,0,0,0,0,0,0,0,0,0,0,0,0,0,0,0,0,0,0,0,0,0,0,0,0,0,0,0,0,0,0,0,0,0,0,0,0,0,0,0,0,0,0,0,0,0,0,0,0,0,0,0,0,0,0,0,0,0,0,0,0,0,0,0,0,0,0,0,0,0,0,0,0,0,0,0,0,0,0,0,0,0,0,0,0,0,0,0,0,0,0,0,0,0,0,0,0,0,0,0,0,0,0,0,0,0,0,0,0,0,0,0,0,0,0,0,0,0,0,0,0,0,0,0,0,0,0,0,0,0,0,0,0,0,0,0,0,0,0,0,0,0,0,0,0,0,0,0,0,0,0,0,0,0,0,0,0,0,0,0,0,0,0,0,0,0,0,0,0,0,0,0,0,0,0,0,0,0,0,0,0,0,0,0,0,0,0,0,0,0,0,0,0,0,0,0,0,0,0,0,0,0,0,0,0,0,0,0,0,0,0,0,0,0,0,0,0,0,0,0,0,0,0,0,0,0,0,0,0,0,0,0,0,0,0,0,0,0,0,0,0,0,0,0,0,0,0,0,0,0,0,0,0,0,0,0,0,0,0,0,0,0,0,0,0,0,0,0,0,0,0,0,0,0,0,0,0,0,0,0,0,0,0,0,0,0,0,0,0,0,0,0,0,0,0,0,0,0,0,0,0,0,0,0,0,0,0,0,0,0,0,0,0,0,0,0,0,0,0,0,0,0,0,0,0,0,0,0,0,0,0,0,0,0,0,0,0,0,0,0,0,0,0,0,0,0,0,0,0,0,0,0,0,0,0,0,0,0,0,0,0,0,0,0,0,0,0,0,0,0,0,0,0,0,0,0,0,0,0,0,0,0,0,0,0,0,0,0,0,0,0,0,0,0,0,0,0,0,0,0,0,0,0,0,0,0,0,0,0,0,0,0,0,0,0,0,0,0,0,0,0,0,0,0,0,0,0,0,0,0,0,0,0,0,0,0,0,0,0,0,0,0,0,0,0,0,0,0,0,0,0,0,0,0,0,0,0,0,0,0,0,0],"trees":[{"base_weights":[3.7935264E-2,-1.0029308E0,8.4234816E-1,-1.1337345E0,-3.7232852E-1,-2.5761614E-2,1.2488704E0,-2.5565106E-2,-1.8120445E-2,-1.870597E-2,2.2662075E-3,1.9488659E-2,-3.67308E-3,3.377462E-2,1.1760245E-2],"categories":[],"categories_nodes":[],"categories_segments":[],"categories_sizes":[],"default_left":[0,0,0,0,0,0,0,0,0,0,0,0,0,0,0],"id":0,"left_children":[1,3,5,7,9,11,13,-1,-1,-1,-1,-1,-1,-1,-1],"loss_changes":[3.4991672E2,1.4674606E1,8.352263E1,2.9710846E0,8.057735E0,1.0529535E1,3.947255E1,0E0,0E0,0E0,0E0,0E0,0E0,0E0,0E0],"parents":[2147483647,0,0,1,1,2,2,3,3,4,4,5,5,6,6],"right_children":[2,4,6,8,10,12,14,-1,-1,-1,-1,-1,-1,-1,-1],"split_conditions":[4.2746615E-1,9.99E1,4.193779E-1,4.193779E-1,1.1082694E-1,3.51E1,1.55395E3,-2.5565106E-2,-1.8120445E-2,-1.870597E-2,2.2662075E-3,1.9488659E-2,-3.67308E-3,3.377462E-2,1.1760245E-2],"split_indices":[14,17,8,8,14,18,18,0,0,0,0,0,0,0,0],"split_type":[0,0,0,0,0,0,0,0,0,0,0,0,0,0,0],"sum_hessian":[4.1795325E2,1.8207478E2,2.3587846E2,1.5049435E2,3.1580423E1,7.505224E1,1.6082623E2,1.13845474E2,3.6648884E1,1.540033E1,1.6180094E1,9.941985E0,6.511025E1,1.05268074E2,5.555815E1],"tree_param":{"num_deleted":"0","num_feature":"19","num_nodes":"15","size_leaf_vector":"1"}},{"base_weights":[6.549333E-2,-9.468431E-1,8.810837E-1,-1.1139562E0,-4.9085006E-1,4.1958652E-2,1.5837233E0,-2.4532974E-2,-1.2714186E-2,-1.9989068E-2,-5.807303E-3,-8.7017E-3,1.0714416E-2,2.0436447E-2,3.8135227E-2],"categories":[],"categories_nodes":[],"categories_segments":[],"categories_sizes":[],"default_left":[0,0,0,0,0,0,0,0,0,0,0,0,0,0,0],"id":1,"left_children":[1,3,5,7,9,11,13,-1,-1,-1,-1,-1,-1,-1,-1],"loss_changes":[3.4238315E2,1.3723267E1,1.351161E2,3.3947144E0,4.659524E0,2.2477432E1,1.718219E1,0E0,0E0,0E0,0E0,0E0,0E0,0E0,0E0],"parents":[2147483647,0,0,1,1,2,2,3,3,4,4,5,5,6,6],"right_children":[2,4,6,8,10,12,14,-1,-1,-1,-1,-1,-1,-1,-1],"split_conditions":[4.2746615E-1,4.193779E-1,4.2086187E-1,4.5742995E-1,3.3803663E-1,4.013104E-1,1.9284603E-1,-2.4532974E-2,-1.2714186E-2,-1.9989068E-2,-5.807303E-3,-8.7017E-3,1.0714416E-2,2.0436447E-2,3.8135227E-2],"split_indices":[14,8,7,16,15,9,16,0,0,0,0,0,0,0,0],"split_type":[0,0,0,0,0,0,0,0,0,0,0,0,0,0,0],"sum_hessian":[4.1469217E2,1.8490402E2,2.2978815E2,1.3494467E2,4.995934E1,1.0487248E2,1.24915665E2,1.21251564E2,1.36931095E1,1.5476974E1,3.448237E1,5.2871956E1,5.2000526E1,3.4933773E1,8.998189E1],"tree_param":{"num_deleted":"0","num_feature":"19","num_nodes":"15","size_leaf_vector":"1"}},{"base_weights":[-1.1367849E-2,-1.0238941E0,7.921605E-1,-1.2146056E0,-7.930363E-1,5.7853397E-2,1.4374636E0,-2.6772982E-2,-2.1329038E-2,-2.1325244E-2,-1.0952518E-2,1.4268096E-2,-5.8736787E-3,5.1242627E-2,1.9406248E-2],"categories":[],"categories_nodes":[],"categories_segments":[],"categories_sizes":[],"default_left":[0,0,0,0,0,0,0,0,0,0,0,0,0,0,0],"id":2,"left_children":[1,3,5,7,9,11,13,-1,-1,-1,-1,-1,-1,-1,-1],"loss_changes":[3.4289474E2,7.75383E0,1.1092857E2,7.1195984E-1,4.79224E0,2.3217136E1,6.351288E1,0E0,0E0,0E0,0E0,0E0,0E0,0E0,0E0],"parents":[2147483647,0,0,1,1,2,2,3,3,4,4,5,5,6,6],"right_children":[2,4,6,8,10,12,14,-1,-1,-1,-1,-1,-1,-1,-1],"split_conditions":[4.2746615E-1,7.19E1,4.2086187E-1,2.3479E3,1.1082694E-1,1.2125E2,6.9025E2,-2.6772982E-2,-2.1329038E-2,-2.1325244E-2,-1.0952518E-2,1.4268096E-2,-5.8736787E-3,5.1242627E-2,1.9406248E-2],"split_indices":[14,17,7,18,14,18,18,0,0,0,0,0,0,0,0],"split_type":[0,0,0,0,0,0,0,0,0,0,0,0,0,0,0],"sum_hessian":[4.2138416E2,1.8656963E2,2.3481453E2,1.0161945E2,8.495018E1,1.0999978E2,1.2481475E2,7.660893E1,2.5010519E1,4.6088123E1,3.886206E1,3.8941513E1,7.1058266E1,4.199051E1,8.282424E1],"tree_param":{"num_deleted":"0","num_feature":"19","num_nodes":"15","size_leaf_vector":"1"}},{"base_weights":[6.938548E-2,-9.3608683E-1,8.55384E-1,-1.1222632E0,-4.6656427E-1,-5.4876998E-2,1.2369101E0,-2.5786752E-2,-1.4579631E-2,-1.8557884E-2,-1.8743868E-3,-8.584083E-3,1.2582195E-2,3.8852904E-2,1.4334058E-2],"categories":[],"categories_nodes":[],"categories_segments":[],"categories_sizes":[],"default_left":[0,0,0,0,0,0,0,0,0,0,0,0,0,0,0],"id":3,"left_children":[1,3,5,7,9,11,13,-1,-1,-1,-1,-1,-1,-1,-1],"loss_changes":[3.3130728E2,1.5704346E1,8.2030334E1,5.5561676E0,8.064036E0,1.6045078E1,5.597316E1,0E0,0E0,0E0,0E0,0E0,0E0,0E0,0E0],"parents":[2147483647,0,0,1,1,2,2,3,3,4,4,5,5,6,6],"right_children":[2,4,6,8,10,12,14,-1,-1,-1,-1,-1,-1,-1,-1],"split_conditions":[4.2746615E-1,9.34E1,4.175388E-1,4.175388E-1,1.1082694E-1,4.013104E-1,1.1E1,-2.5786752E-2,-1.4579631E-2,-1.8557884E-2,-1.8743868E-3,-8.584083E-3,1.2582195E-2,3.8852904E-2,1.4334058E-2],"split_indices":[14,17,11,11,14,9,4,0,0,0,0,0,0,0,0],"split_type":[0,0,0,0,0,0,0,0,0,0,0,0,0,0,0],"sum_hessian":[4.192323E2,1.838087E2,2.3542358E2,1.3126797E2,5.2540737E1,6.935675E1,1.6606683E2,1.04563995E2,2.6703972E1,2.463338E1,2.7907358E1,4.5227562E1,2.4129187E1,7.846853E1,8.75983E1],"tree_param":{"num_deleted":"0","num_feature":"19","num_nodes":"15","size_leaf_vector":"1"}},{"base_weights":[4.9596343E-2,-9.739658E-1,7.900669E-1,-1.089931E0,-4.805306E-1,5.340045E-2,1.314367E0,-2.4537398E-2,-1.7389987E-2,3.0511338E-3,-1.7402926E-2,2.3889113E-2,-8.752285E-3,4.192884E-2,1.3695637E-2],"categories":[],"categories_nodes":[],"categories_segments":[],"categories_sizes":[],"default_left":[0,0,0,0,0,0,0,0,0,0,0,0,0,0,0],"id":4,"left_children":[1,3,5,7,9,11,13,-1,-1,-1,-1,-1,-1,-1,-1],"loss_changes":[3.1795654E2,9.71106E0,9.37673E1,2.4978485E0,7.5558147E0,5.1988285E1,6.372432E1,0E0,0E0,0E0,0E0,0E0,0E0,0E0,0E0],"parents":[2147483647,0,0,1,1,2,2,3,3,4,4,5,5,6,6],"right_children":[2,4,6,8,10,12,14,-1,-1,-1,-1,-1,-1,-1,-1],"split_conditions":[4.2746615E-1,9.945E1,6.955E1,4.175388E-1,6E1,3E0,1.6E1,-2.4537398E-2,-1.7389987E-2,3.0511338E-3,-1.7402926E-2,2.3889113E-2,-8.752285E-3,4.192884E-2,1.3695637E-2],"split_indices":[14,17,17,11,4,4,4,0,0,0,0,0,0,0,0],"split_type":[0,0,0,0,0,0,0,0,0,0,0,0,0,0,0],"sum_hessian":[4.195603E2,1.7598521E2,2.4357507E2,1.4211916E2,3.3866066E1,1.0145885E2,1.4211623E2,1.0819584E2,3.3923317E1,1.1890684E1,2.197538E1,3.0831173E1,7.062767E1,6.968514E1,7.243109E1],"tree_param":{"num_deleted":"0","num_feature":"19","num_nodes":"15","size_leaf_vector":"1"}},{"base_weights":[-3.651875E-2,-1.0154456E0,7.038139E-1,-1.1443725E0,-5.874239E-1,-1.9712834E-1,1.1143614E0,-2.5356982E-2,-1.5313045E-2,-5.5928514E-3,-2.4685377E-2,-9.142956E-3,7.059338E-3,3.561708E-2,1.2804945E-2],"categories":[],"categories_nodes":[],"categories_segments":[],"categories_sizes":[],"default_left":[0,0,0,0,0,0,0,0,0,0,0,0,0,0,0],"id":5,"left_children":[1,3,5,7,9,11,13,-1,-1,-1,-1,-1,-1,-1,-1],"loss_changes":[2.990288E2,9.41304E0,8.7037056E1,3.1863708E0,7.528721E0,9.361376E0,4.6937164E1,0E0,0E0,0E0,0E0,0E0,0E0,0E0,0E0],"parents":[2147483647,0,0,1,1,2,2,3,3,4,4,5,5,6,6],"right_children":[2,4,6,8,10,12,14,-1,-1,-1,-1,-1,-1,-1,-1],"split_conditions":[4.2746615E-1,9.535E1,4.175388E-1,4.5742995E-1,7E1,7.63E1,1.1E1,-2.5356982E-2,-1.5313045E-2,-5.5928514E-3,-2.4685377E-2,-9.142956E-3,7.059338E-3,3.561708E-2,1.2804945E-2],"split_indices":[14,17,11,16,4,17,4,0,0,0,0,0,0,0,0],"split_type":[0,0,0,0,0,0,0,0,0,0,0,0,0,0,0],"sum_hessian":[4.1250046E2,1.77759E2,2.3474147E2,1.3619638E2,4.156263E1,7.33105E1,1.6143095E2,1.1741652E2,1.8779858E1,2.7164452E1,1.4398181E1,5.0948322E1,2.2362183E1,7.4606834E1,8.682413E1],"tree_param":{"num_deleted":"0","num_feature":"19","num_nodes":"15","size_leaf_vector":"1"}},{"base_weights":[-9.172761E-3,-7.581813E-1,7.285997E-1,-9.5211583E-1,-1.7002141E-1,1.726544E0,1.2930776E-1,-2.9231212E-3,-2.3397997E-2,3.084385E-2,-1.2183763E-2,2.3940623E-2,4.3348886E-2,-8.735888E-3,1.7039629E-2],"categories":[],"categories_nodes":[],"categories_segments":[],"categories_sizes":[],"default_left":[0,0,0,0,0,0,0,0,0,0,0,0,0,0,0],"id":6,"left_children":[1,3,5,7,9,11,13,-1,-1,-1,-1,-1,-1,-1,-1],"loss_changes":[2.325705E2,2.3582527E1,1.26284996E2,2.0522934E1,3.491496E1,1.5043045E1,4.9479366E1,0E0,0E0,0E0,0E0,0E0,0E0,0E0,0E0],"parents":[2147483647,0,0,1,1,2,2,3,3,4,4,5,5,6,6],"right_children":[2,4,6,8,10,12,14,-1,-1,-1,-1,-1,-1,-1,-1],"split_conditions":[4.193779E-1,4.2086187E-1,1.1E1,1.807E2,2.1963E3,4.2086187E-1,4.5742995E-1,-2.9231212E-3,-2.3397997E-2,3.084385E-2,-1.2183763E-2,2.3940623E-2,4.3348886E-2,-8.735888E-3,1.7039629E-2],"split_indices":[8,7,4,18,18,7,16,0,0,0,0,0,0,0,0],"split_type":[0,0,0,0,0,0,0,0,0,0,0,0,0,0,0],"sum_hessian":[4.208472E2,2.0898627E2,2.1186093E2,1.5687164E2,5.211463E1,7.934616E1,1.3251477E2,2.646584E1,1.304058E2,1.0323746E1,4.1790886E1,2.939371E1,4.995245E1,7.3472E1,5.904277E1],"tree_param":{"num_deleted":"0","num_feature":"19","num_nodes":"15","size_leaf_vector":"1"}},{"base_weights":[2.2352867E-2,-9.495058E-1,7.3927057E-1,-1.0842959E0,-5.8204794E-1,-1.449299E-1,1.1383853E0,-2.528851E-2,-1.9651532E-2,7.482457E-3,-1.4328975E-2,1.5303535E-2,-6.0764244E-3,4.9525883E-2,1.937337E-2],"categories":[],"categories_nodes":[],"categories_segments":[],"categories_sizes":[],"default_left":[0,0,0,0,0,0,0,0,0,0,0,0,0,0,0],"id":7,"left_children":[1,3,5,7,9,11,13,-1,-1,-1,-1,-1,-1,-1,-1],"loss_changes":[3.0228857E2,8.735718E0,8.839874E1,1.9074097E0,4.80147E0,9.71166E0,4.4514435E1,0E0,0E0,0E0,0E0,0E0,0E0,0E0,0E0],"parents":[2147483647,0,0,1,1,2,2,3,3,4,4,5,5,6,6],"right_children":[2,4,6,8,10,12,14,-1,-1,-1,-1,-1,-1,-1,-1],"split_conditions":[4.2746615E-1,4.193779E-1,4.193779E-1,2.7897E3,1.1988E3,2E0,2E0,-2.528851E-2,-1.9651532E-2,7.482457E-3,-1.4328975E-2,1.5303535E-2,-6.0764244E-3,4.9525883E-2,1.937337E-2],"split_indices":[14,8,8,18,18,4,4,0,0,0,0,0,0,0,0],"split_type":[0,0,0,0,0,0,0,0,0,0,0,0,0,0,0],"sum_hessian":[4.339201E2,1.8407213E2,2.4984799E2,1.3421346E2,4.985868E1,7.752704E1,1.7232095E2,7.2844604E1,6.1368843E1,4.622494E0,4.5236187E1,1.0783409E1,6.674363E1,2.560222E1,1.4671873E2],"tree_param":{"num_deleted":"0","num_feature":"19","num_nodes":"15","size_leaf_vector":"1"}},{"base_weights":[2.323978E-2,-9.550705E-1,7.153142E-1,-1.117259E0,-4.993696E-1,6.5331906E-2,1.173931E0,-2.5068132E-2,-1.723596E-2,-1.8227848E-3,-1.7325422E-2,1.6336905E-2,-1.0246263E-2,3.369519E-2,7.581189E-3],"categories":[],"categories_nodes":[],"categories_segments":[],"categories_sizes":[],"default_left":[0,0,0,0,0,0,0,0,0,0,0,0,0,0,0],"id":8,"left_children":[1,3,5,7,9,11,13,-1,-1,-1,-1,-1,-1,-1,-1],"loss_changes":[2.786722E2,1.2226257E1,7.163061E1,2.415268E0,5.8671217E0,3.95753E1,4.9153656E1,0E0,0E0,0E0,0E0,0E0,0E0,0E0,0E0],"parents":[2147483647,0,0,1,1,2,2,3,3,4,4,5,5,6,6],"right_children":[2,4,6,8,10,12,14,-1,-1,-1,-1,-1,-1,-1,-1],"split_conditions":[4.2746615E-1,9.34E1,4.2086187E-1,4.193779E-1,6.6149E3,6E0,2.6E1,-2.5068132E-2,-1.723596E-2,-1.8227848E-3,-1.7325422E-2,1.6336905E-2,-1.0246263E-2,3.369519E-2,7.581189E-3],"split_indices":[14,17,7,8,18,4,4,0,0,0,0,0,0,0,0],"split_type":[0,0,0,0,0,0,0,0,0,0,0,0,0,0,0],"sum_hessian":[4.116618E2,1.7042308E2,2.4123871E2,1.2531668E2,4.5106407E1,1.000052E2,1.412335E2,9.862741E1,2.6689266E1,2.023855E1,2.4867859E1,4.388104E1,5.612417E1,9.2007965E1,4.9225544E1],"tree_param":{"num_deleted":"0","num_feature":"19","num_nodes":"15","size_leaf_vector":"1"}},{"base_weights":[-3.0248562E-2,-9.571184E-1,6.1693114E-1,-1.0798588E0,-4.2793673E-1,-9.3054146E-2,1.1714805E0,-2.4031596E-2,-1.7849158E-2,-4.3982766E-3,-2.4105078E-2,1.5175668E-2,-1.0842568E-2,3.9368875E-2,1.3254526E-2],"categories":[],"categories_nodes":[],"categories_segments":[],"categories_sizes":[],"default_left":[0,0,0,0,0,0,0,0,0,0,0,0,0,0,0],"id":9,"left_children":[1,3,5,7,9,11,13,-1,-1,-1,-1,-1,-1,-1,-1],"loss_changes":[2.5869446E2,1.1178238E1,1.0014359E2,1.7024384E0,5.003418E0,3.8391674E1,5.370363E1,0E0,0E0,0E0,0E0,0E0,0E0,0E0,0E0],"parents":[2147483647,0,0,1,1,2,2,3,3,4,4,5,5,6,6],"right_children":[2,4,6,8,10,12,14,-1,-1,-1,-1,-1,-1,-1,-1],"split_conditions":[4.2746615E-1,9.945E1,4.2086187E-1,4.193779E-1,1.118E2,4E0,1.3E1,-2.4031596E-2,-1.7849158E-2,-4.3982766E-3,-2.4105078E-2,1.5175668E-2,-1.0842568E-2,3.9368875E-2,1.3254526E-2],"split_indices":[14,17,7,8,17,4,4,0,0,0,0,0,0,0,0],"split_type":[0,0,0,0,0,0,0,0,0,0,0,0,0,0,0],"sum_hessian":[4.3112723E2,1.7740416E2,2.5372305E2,1.436512E2,3.375296E1,1.11089424E2,1.4263364E2,1.1086133E2,3.278987E1,2.6155811E1,7.597149E0,3.777479E1,7.331463E1,6.165099E1,8.098265E1],"tree_param":{"num_deleted":"0","num_feature":"19","num_nodes":"15","size_leaf_vector":"1"}},{"base_weights":[1.3130378E-2,-6.813235E-1,6.657612E-1,-1.10749446E-1,-9.6056646E-1,1.1887255E0,-1.21226236E-1,-8.907573E-3,2.9138263E-2,-2.3356587E-2,-1.0629316E-2,1.2160839E-2,3.2351118E-2,-1.2613809E-2,4.9303197E-3],"categories":[],"categories_nodes":[],"categories_segments":[],"categories_sizes":[],"default_left":[0,0,0,0,0,0,0,0,0,0,0,0,0,0,0],"id":10,"left_children":[1,3,5,7,9,11,13,-1,-1,-1,-1,-1,-1,-1,-1],"loss_changes":[1.8663295E2,3.1516266E1,8.7685135E1,3.0740906E1,8.891571E0,2.7021652E1,1.4559719E1,0E0,0E0,0E0,0E0,0E0,0E0,0E0,0E0],"parents":[2147483647,0,0,1,1,2,2,3,3,4,4,5,5,6,6],"right_children":[2,4,6,8,10,12,14,-1,-1,-1,-1,-1,-1,-1,-1],"split_conditions":[4.175388E-1,2E1,2.6E1,7.09E1,9.385E1,4.2086187E-1,8.365E1,-8.907573E-3,2.9138263E-2,-2.3356587E-2,-1.0629316E-2,1.2160839E-2,3.2351118E-2,-1.2613809E-2,4.9303197E-3],"split_indices":[11,4,4,17,17,7,17,0,0,0,0,0,0,0,0],"split_type":[0,0,0,0,0,0,0,0,0,0,0,0,0,0,0],"sum_hessian":[4.117911E2,1.9933417E2,2.1245692E2,6.576904E1,1.3356512E2,1.2781135E2,8.464557E1,5.4514915E1,1.1254128E1,9.955078E1,3.401435E1,4.716752E1,8.064383E1,3.632832E1,4.8317253E1],"tree_param":{"num_deleted":"0","num_feature":"19","num_nodes":"15","size_leaf_vector":"1"}},{"base_weights":[-3.4574907E-2,-9.0207106E-1,5.699898E-1,-1.1298103E0,-6.398015E-1,1.4685386E-1,1.0330337E0,-2.5299793E-2,-1.0946332E-2,-1.6913088E-2,-5.051141E-3,1.80885E-2,-2.166316E-3,3.2854527E-2,1.5175477E-2],"categories":[],"categories_nodes":[],"categories_segments":[],"categories_sizes":[],"default_left":[0,0,0,0,0,0,0,0,0,0,0,0,0,0,0],"id":11,"left_children":[1,3,5,7,9,11,13,-1,-1,-1,-1,-1,-1,-1,-1],"loss_changes":[2.1950099E2,9.866974E0,4.800898E1,3.8453827E0,5.0997734E0,2.3256466E1,1.8852715E1,0E0,0E0,0E0,0E0,0E0,0E0,0E0,0E0],"parents":[2147483647,0,0,1,1,2,2,3,3,4,4,5,5,6,6],"right_children":[2,4,6,8,10,12,14,-1,-1,-1,-1,-1,-1,-1,-1],"split_conditions":[4.2746615E-1,1.1082694E-1,4.5742995E-1,1.0585E2,9.405E1,4E0,6E0,-2.5299793E-2,-1.0946332E-2,-1.6913088E-2,-5.051141E-3,1.80885E-2,-2.166316E-3,3.2854527E-2,1.5175477E-2],"split_indices":[14,14,16,17,17,4,4,0,0,0,0,0,0,0,0],"split_type":[0,0,0,0,0,0,0,0,0,0,0,0,0,0,0],"sum_hessian":[4.1837744E2,1.7197824E2,2.4639922E2,9.157738E1,8.040087E1,1.2900716E2,1.17392044E2,8.104772E1,1.0529658E1,5.6334816E1,2.4066053E1,3.365306E1,9.53541E1,4.2860912E1,7.4531136E1],"tree_param":{"num_deleted":"0","num_feature":"19","num_nodes":"15","size_leaf_vector":"1"}},{"base_weights":[7.131892E-2,-9.155048E-1,7.21078E-1,-1.0275531E0,-3.8479498E-1,3.3751363E-1,1.2095962E0,-2.3041403E-2,-1.2616018E-2,1.2938932E-2,-1.1122354E-2,2.74613E-2,4.009431E-4,4.1176718E-2,1.0989003E-2],"categories":[],"categories_nodes":[],"categories_segments":[],"categories_sizes":[],"default_left":[0,0,0,0,0,0,0,0,0,0,0,0,0,0,0],"id":12,"left_children":[1,3,5,7,9,11,13,-1,-1,-1,-1,-1,-1,-1,-1],"loss_changes":[2.6992075E2,9.60907E0,4.7242798E1,3.7590942E0,4.2734103E0,4.379425E1,5.7000717E1,0E0,0E0,0E0,0E0,0E0,0E0,0E0,0E0],"parents":[2147483647,0,0,1,1,2,2,3,3,4,4,5,5,6,6],"right_children":[2,4,6,8,10,12,14,-1,-1,-1,-1,-1,-1,-1,-1],"split_conditions":[4.2746615E-1,4.5742995E-1,7.89E1,1.019E2,2.5027934E-1,2E0,1.55395E3,-2.3041403E-2,-1.2616018E-2,1.2938932E-2,-1.1122354E-2,2.74613E-2,4.009431E-4,4.1176718E-2,1.0989003E-2],"split_indices":[14,16,17,17,6,4,18,0,0,0,0,0,0,0,0],"split_type":[0,0,0,0,0,0,0,0,0,0,0,0,0,0,0],"sum_hessian":[4.2102408E2,1.6701613E2,2.5400793E2,1.3754422E2,2.9471905E1,1.4255331E2,1.1145462E2,1.1749492E2,2.0049303E1,3.535671E0,2.5936234E1,3.5009018E1,1.07544304E2,5.2955463E1,5.8499157E1],"tree_param":{"num_deleted":"0","num_feature":"19","num_nodes":"15","size_leaf_vector":"1"}},{"base_weights":[3.338384E-2,-8.574706E-1,6.108818E-1,-9.833317E-1,-2.522319E-1,-2.2226687E-1,9.8228496E-1,-2.2381559E-2,-1.4766005E-2,-1.4594468E-2,1.1739665E-2,1.339656E-2,-8.010466E-3,1.0100566E-2,2.7786246E-2],"categories":[],"categories_nodes":[],"categories_segments":[],"categories_sizes":[],"default_left":[0,0,0,0,0,0,0,0,0,0,0,0,0,0,0],"id":13,"left_children":[1,3,5,7,9,11,13,-1,-1,-1,-1,-1,-1,-1,-1],"loss_changes":[2.1600185E2,1.2288277E1,7.9063576E1,2.776184E0,1.0373394E1,1.0715201E1,2.9840942E1,0E0,0E0,0E0,0E0,0E0,0E0,0E0,0E0],"parents":[2147483647,0,0,1,1,2,2,3,3,4,4,5,5,6,6],"right_children":[2,4,6,8,10,12,14,-1,-1,-1,-1,-1,-1,-1,-1],"split_conditions":[4.2746615E-1,4.5742995E-1,4.193779E-1,9.385E1,9.99E1,2E0,4.5742995E-1,-2.2381559E-2,-1.4766005E-2,-1.4594468E-2,1.1739665E-2,1.339656E-2,-8.010466E-3,1.0100566E-2,2.7786246E-2],"split_indices":[14,16,8,17,17,4,16,0,0,0,0,0,0,0,0],"split_type":[0,0,0,0,0,0,0,0,0,0,0,0,0,0,0],"sum_hessian":[4.1995667E2,1.6501187E2,2.5494481E2,1.3629141E2,2.8720469E1,7.8419624E1,1.7652518E2,1.04293785E2,3.1997623E1,1.8756056E1,9.964413E0,1.2038274E1,6.638135E1,7.192992E1,1.0459527E2],"tree_param":{"num_deleted":"0","num_feature":"19","num_nodes":"15","size_leaf_vector":"1"}},{"base_weights":[2.2769855E-2,-6.653147E-1,6.530801E-1,-9.090725E-2,-9.206929E-1,1.160002E0,-2.9256722E-2,-7.7429367E-3,3.1058973E-2,-2.2573186E-2,-9.991036E-3,1.215949E-2,3.2089457E-2,-1.5034818E-2,5.392556E-3],"categories":[],"categories_nodes":[],"categories_segments":[],"categories_sizes":[],"default_left":[0,0,0,0,0,0,0,0,0,0,0,0,0,0,0],"id":14,"left_children":[1,3,5,7,9,11,13,-1,-1,-1,-1,-1,-1,-1,-1],"loss_changes":[1.7809773E2,2.854361E1,7.4448845E1,2.626016E1,8.998611E0,2.5957825E1,1.8062248E1,0E0,0E0,0E0,0E0,0E0,0E0,0E0,0E0],"parents":[2147483647,0,0,1,1,2,2,3,3,4,4,5,5,6,6],"right_children":[2,4,6,8,10,12,14,-1,-1,-1,-1,-1,-1,-1,-1],"split_conditions":[4.175388E-1,2E1,2.3E1,4.2086187E-1,9.385E1,4.5742995E-1,4.2086187E-1,-7.7429367E-3,3.1058973E-2,-2.2573186E-2,-9.991036E-3,1.215949E-2,3.2089457E-2,-1.5034818E-2,5.392556E-3],"split_indices":[11,4,4,7,17,16,7,0,0,0,0,0,0,0,0],"split_type":[0,0,0,0,0,0,0,0,0,0,0,0,0,0,0],"sum_hessian":[4.1063922E2,1.9614955E2,2.1448967E2,6.064354E1,1.3550601E2,1.2325296E2,9.123671E1,5.1648346E1,8.995195E0,1.00033264E2,3.547274E1,4.8196514E1,7.505644E1,2.7058376E1,6.417833E1],"tree_param":{"num_deleted":"0","num_feature":"19","num_nodes":"15","size_leaf_vector":"1"}},{"base_weights":[-2.970992E-2,-6.563242E-1,5.442683E-1,-9.53462E-1,-3.133172E-1,-1.596483E-2,1.0374317E0,9.230884E-3,-2.1122083E-2,-1.2146805E-2,9.789708E-3,-1.2006275E-2,5.475912E-3,3.0727463E-2,1.4965447E-2],"categories":[],"categories_nodes":[],"categories_segments":[],"categories_sizes":[],"default_left":[0,0,0,0,0,0,0,0,0,0,0,0,0,0,0],"id":15,"left_children":[1,3,5,7,9,11,13,-1,-1,-1,-1,-1,-1,-1,-1],"loss_changes":[1.5017253E2,2.0071434E1,6.0378525E1,8.064529E0,1.931725E1,1.5744018E1,1.5561195E1,0E0,0E0,0E0,0E0,0E0,0E0,0E0,0E0],"parents":[2147483647,0,0,1,1,2,2,3,3,4,4,5,5,6,6],"right_children":[2,4,6,8,10,12,14,-1,-1,-1,-1,-1,-1,-1,-1],"split_conditions":[4.175388E-1,3.2771084E-1,4.5742995E-1,7.89E1,4.2086187E-1,4.193779E-1,6.38E2,9.230884E-3,-2.1122083E-2,-1.2146805E-2,9.789708E-3,-1.2006275E-2,5.475912E-3,3.0727463E-2,1.4965447E-2],"split_indices":[11,2,16,18,7,8,18,0,0,0,0,0,0,0,0],"split_type":[0,0,0,0,0,0,0,0,0,0,0,0,0,0,0],"sum_hessian":[4.174579E2,1.9976706E2,2.1769084E2,1.0668149E2,9.308556E1,1.0170119E2,1.15989655E2,3.7767522E0,1.0290474E2,6.965199E1,2.343357E1,3.4075512E1,6.762568E1,4.9720974E1,6.626868E1],"tree_param":{"num_deleted":"0","num_feature":"19","num_nodes":"15","size_leaf_vector":"1"}},{"base_weights":[2.326145E-2,-6.357167E-1,6.0548186E-1,-8.463645E-1,-4.6082735E-2,8.7480795E-1,-1.737917E-1,-9.225653E-3,-2.1561274E-2,2.619744E-2,-8.040864E-3,4.16949E-3,2.7898002E-2,-1.0182393E-2,6.537501E-3],"categories":[],"categories_nodes":[],"categories_segments":[],"categories_sizes":[],"default_left":[0,0,0,0,0,0,0,0,0,0,0,0,0,0,0],"id":16,"left_children":[1,3,5,7,9,11,13,-1,-1,-1,-1,-1,-1,-1,-1],"loss_changes":[1.5716107E2,2.3640762E1,4.584455E1,1.007589E1,2.1993761E1,4.9479065E1,8.463442E0,0E0,0E0,0E0,0E0,0E0,0E0,0E0,0E0],"parents":[2147483647,0,0,1,1,2,2,3,3,4,4,5,5,6,6],"right_children":[2,4,6,8,10,12,14,-1,-1,-1,-1,-1,-1,-1,-1],"split_conditions":[4.175388E-1,4.2086187E-1,3.04575E3,4.1645E2,1.65535E3,4.2086187E-1,4.5742995E-1,-9.225653E-3,-2.1561274E-2,2.619744E-2,-8.040864E-3,4.16949E-3,2.7898002E-2,-1.0182393E-2,6.537501E-3],"split_indices":[11,7,18,18,18,7,16,0,0,0,0,0,0,0,0],"split_type":[0,0,0,0,0,0,0,0,0,0,0,0,0,0,0],"sum_hessian":[4.0963477E2,1.9196776E2,2.1766702E2,1.411531E2,5.0814655E1,1.6197714E2,5.5689877E1,4.393699E1,9.721611E1,1.0357389E1,4.0457264E1,6.536405E1,9.66131E1,3.4203896E1,2.1485977E1],"tree_param":{"num_deleted":"0","num_feature":"19","num_nodes":"15","size_leaf_vector":"1"}},{"base_weights":[6.6983745E-2,-8.044358E-1,6.2461865E-1,-1.1263498E0,-4.4472006E-1,1.1850219E-1,9.9414384E-1,-2.5089739E-2,-1.6522305E-2,-1.6814055E-2,8.820863E-3,1.6096655E-2,-6.438168E-3,3.1222222E-2,1.02182E-2],"categories":[],"categories_nodes":[],"categories_segments":[],"categories_sizes":[],"default_left":[0,0,0,0,0,0,0,0,0,0,0,0,0,0,0],"id":17,"left_children":[1,3,5,7,9,11,13,-1,-1,-1,-1,-1,-1,-1,-1],"loss_changes":[2.0190453E2,1.8400612E1,4.7170906E1,1.5532532E0,2.380907E1,2.9711828E1,3.6205963E1,0E0,0E0,0E0,0E0,0E0,0E0,0E0,0E0],"parents":[2147483647,0,0,1,1,2,2,3,3,4,4,5,5,6,6],"right_children":[2,4,6,8,10,12,14,-1,-1,-1,-1,-1,-1,-1,-1],"split_conditions":[4.2746615E-1,1.1082694E-1,4.2086187E-1,4.013104E-1,9.405E1,5E0,1.6E1,-2.5089739E-2,-1.6522305E-2,-1.6814055E-2,8.820863E-3,1.6096655E-2,-6.438168E-3,3.1222222E-2,1.02182E-2],"split_indices":[14,14,7,9,17,4,4,0,0,0,0,0,0,0,0],"split_type":[0,0,0,0,0,0,0,0,0,0,0,0,0,0,0],"sum_hessian":[4.1557376E2,1.6200223E2,2.5357152E2,8.515507E1,7.684717E1,1.0727043E2,1.4630109E2,7.007552E1,1.5079542E1,5.4597225E1,2.2249945E1,4.2691467E1,6.4578964E1,7.38649E1,7.243618E1],"tree_param":{"num_deleted":"0","num_feature":"19","num_nodes":"15","size_leaf_vector":"1"}},{"base_weights":[5.8653875E-4,-6.123366E-1,5.221171E-1,-7.9236984E-1,-1.2788385E-1,1.1498337E0,1.0171562E-1,7.7151572E-3,-1.9024061E-2,1.7334996E-2,-1.131011E-2,1.4302049E-2,3.0027866E-2,-1.0928872E-2,8.688722E-3],"categories":[],"categories_nodes":[],"categories_segments":[],"categories_sizes":[],"default_left":[0,0,0,0,0,0,0,0,0,0,0,0,0,0,0],"id":18,"left_children":[1,3,5,7,9,11,13,-1,-1,-1,-1,-1,-1,-1,-1],"loss_changes":[1.3263866E2,1.6412636E1,5.89374E1,1.852803E1,2.0334755E1,1.1348358E1,2.616824E1,0E0,0E0,0E0,0E0,0E0,0E0,0E0,0E0],"parents":[2147483647,0,0,1,1,2,2,3,3,4,4,5,5,6,6],"right_children":[2,4,6,8,10,12,14,-1,-1,-1,-1,-1,-1,-1,-1],"split_conditions":[4.175388E-1,4.2086187E-1,1.1E1,2E0,3.4E1,4.2086187E-1,4.2086187E-1,7.7151572E-3,-1.9024061E-2,1.7334996E-2,-1.131011E-2,1.4302049E-2,3.0027866E-2,-1.0928872E-2,8.688722E-3],"split_indices":[11,7,4,4,4,7,7,0,0,0,0,0,0,0,0],"split_type":[0,0,0,0,0,0,0,0,0,0,0,0,0,0,0],"sum_hessian":[4.1499512E2,1.905806E2,2.2441454E2,1.386013E2,5.197929E1,8.9793144E1,1.3462138E2,1.2266684E1,1.2633462E2,1.5487202E1,3.649209E1,3.4029827E1,5.5763313E1,4.4737103E1,8.988429E1],"tree_param":{"num_deleted":"0","num_feature":"19","num_nodes":"15","size_leaf_vector":"1"}},{"base_weights":[4.9843234E-3,-8.327421E-1,5.403896E-1,-1.0815855E0,-5.4973763E-1,-2.441979E-1,8.740882E-1,-2.3862218E-2,-1.7477501E-2,-1.8653665E-2,-6.59323E-3,1.02939345E-2,-7.5261486E-3,8.200997E-3,2.4911406E-2],"categories":[],"categories_nodes":[],"categories_segments":[],"categories_sizes":[],"default_left":[0,0,0,0,0,0,0,0,0,0,0,0,0,0,0],"id":19,"left_children":[1,3,5,7,9,11,13,-1,-1,-1,-1,-1,-1,-1,-1],"loss_changes":[1.8580194E2,1.0994118E1,6.637965E1,7.341919E-1,5.7959766E0,6.308877E0,2.6544403E1,0E0,0E0,0E0,0E0,0E0,0E0,0E0,0E0],"parents":[2147483647,0,0,1,1,2,2,3,3,4,4,5,5,6,6],"right_children":[2,4,6,8,10,12,14,-1,-1,-1,-1,-1,-1,-1,-1],"split_conditions":[4.2746615E-1,1.1082694E-1,4.193779E-1,4.193779E-1,2.27185E3,2.44E1,4.5742995E-1,-2.3862218E-2,-1.7477501E-2,-1.8653665E-2,-6.59323E-3,1.02939345E-2,-7.5261486E-3,8.200997E-3,2.4911406E-2],"split_indices":[14,14,8,8,18,18,16,0,0,0,0,0,0,0,0],"split_type":[0,0,0,0,0,0,0,0,0,0,0,0,0,0,0],"sum_hessian":[4.1439282E2,1.6141168E2,2.5298114E2,8.545594E1,7.5955734E1,7.5286995E1,1.7769415E2,6.9012344E1,1.6443598E1,3.0709095E1,4.5246643E1,9.883475E0,6.540352E1,7.019613E1,1.0749802E2],"tree_param":{"num_deleted":"0","num_feature":"19","num_nodes":"15","size_leaf_vector":"1"}},{"base_weights":[2.8756723E-2,-7.439097E-1,4.9592394E-1,-1.0197759E0,-4.595577E-1,-1.6391589E-1,7.5718635E-1,-2.3729661E-2,-1.8755414E-2,-1.8697161E-2,-2.62463E-3,1.6554357E-2,-7.872895E-3,2.1910906E-2,7.1906424E-3],"categories":[],"categories_nodes":[],"categories_segments":[],"categories_sizes":[],"default_left":[0,0,0,0,0,0,0,0,0,0,0,0,0,0,0],"id":20,"left_children":[1,3,5,7,9,11,13,-1,-1,-1,-1,-1,-1,-1,-1],"loss_changes":[1.475068E2,1.1730362E1,4.4086548E1,6.231384E-1,1.0766176E1,1.4424419E1,2.1453903E1,0E0,0E0,0E0,0E0,0E0,0E0,0E0,0E0],"parents":[2147483647,0,0,1,1,2,2,3,3,4,4,5,5,6,6],"right_children":[2,4,6,8,10,12,14,-1,-1,-1,-1,-1,-1,-1,-1],"split_conditions":[4.2746615E-1,1.1082694E-1,4.193779E-1,3.3803663E-1,3.3803663E-1,2E0,1.7E1,-2.3729661E-2,-1.8755414E-2,-1.8697161E-2,-2.62463E-3,1.6554357E-2,-7.872895E-3,2.1910906E-2,7.1906424E-3],"split_indices":[14,14,8,15,15,4,4,0,0,0,0,0,0,0,0],"split_type":[0,0,0,0,0,0,0,0,0,0,0,0,0,0,0],"sum_hessian":[4.0879437E2,1.538487E2,2.5494568E2,7.767829E1,7.61704E1,7.20666E1,1.8287907E2,4.022302E1,3.745527E1,3.2951828E1,4.3218575E1,1.2884499E1,5.91821E1,1.0768605E2,7.519302E1],"tree_param":{"num_deleted":"0","num_feature":"19","num_nodes":"15","size_leaf_vector":"1"}},{"base_weights":[-9.271507E-2,-8.8916636E-1,3.6967796E-1,-9.9996626E-1,-4.4952038E-1,-2.0442057E-1,7.807408E-1,-2.222819E-2,-1.3436174E-2,3.2122016E-3,-1.7747281E-2,7.8084925E-3,-7.872216E-3,2.4239268E-2,5.5871885E-3],"categories":[],"categories_nodes":[],"categories_segments":[],"categories_sizes":[],"default_left":[0,0,0,0,0,0,0,0,0,0,0,0,0,0,0],"id":21,"left_children":[1,3,5,7,9,11,13,-1,-1,-1,-1,-1,-1,-1,-1],"loss_changes":[1.521835E2,7.0655823E0,6.174044E1,2.1998825E0,7.561132E0,1.0708794E1,2.9042282E1,0E0,0E0,0E0,0E0,0E0,0E0,0E0,0E0],"parents":[2147483647,0,0,1,1,2,2,3,3,4,4,5,5,6,6],"right_children":[2,4,6,8,10,12,14,-1,-1,-1,-1,-1,-1,-1,-1],"split_conditions":[4.2746615E-1,9.945E1,4.2086187E-1,4.5742995E-1,6E1,2E0,2.1E1,-2.222819E-2,-1.3436174E-2,3.2122016E-3,-1.7747281E-2,7.8084925E-3,-7.872216E-3,2.4239268E-2,5.5871885E-3],"split_indices":[14,17,7,16,4,4,4,0,0,0,0,0,0,0,0],"split_type":[0,0,0,0,0,0,0,0,0,0,0,0,0,0,0],"sum_hessian":[4.1290652E2,1.5184624E2,2.6106027E2,1.2086364E2,3.0982595E1,1.08698555E2,1.5236172E2,1.0312924E2,1.77344E1,1.2067498E1,1.8915098E1,2.4536951E1,8.4161606E1,8.789555E1,6.446617E1],"tree_param":{"num_deleted":"0","num_feature":"19","num_nodes":"15","size_leaf_vector":"1"}},{"base_weights":[-2.169516E-2,5.4290533E-1,-5.600271E-1,4.9010083E-2,1.056338E0,-9.668887E-1,-1.3645822E-1,-9.065411E-3,1.1545361E-2,3.6161903E-2,1.8440405E-2,-2.2905529E-2,-1.3067707E-2,9.501032E-3,-9.731962E-3],"categories":[],"categories_nodes":[],"categories_segments":[],"categories_sizes":[],"default_left":[0,0,0,0,0,0,0,0,0,0,0,0,0,0,0],"id":22,"left_children":[1,3,5,7,9,11,13,-1,-1,-1,-1,-1,-1,-1,-1],"loss_changes":[1.2756732E2,5.1642414E1,3.680931E1,2.524242E1,1.1250504E1,4.310173E0,2.0389309E1,0E0,0E0,0E0,0E0,0E0,0E0,0E0,0E0],"parents":[2147483647,0,0,1,1,2,2,3,3,4,4,5,5,6,6],"right_children":[2,4,6,8,10,12,14,-1,-1,-1,-1,-1,-1,-1,-1],"split_conditions":[2.3E1,4.2086187E-1,4.2086187E-1,4.013104E-1,1.4515E2,4.175388E-1,4.3E1,-9.065411E-3,1.1545361E-2,3.6161903E-2,1.8440405E-2,-2.2905529E-2,-1.3067707E-2,9.501032E-3,-9.731962E-3],"split_indices":[4,7,7,9,18,11,4,0,0,0,0,0,0,0,0],"split_type":[0,0,0,0,0,0,0,0,0,0,0,0,0,0,0],"sum_hessian":[4.1968777E2,2.0463983E2,2.1504794E2,1.04532455E2,1.0010737E2,1.0941071E2,1.0563723E2,5.3109245E1,5.142321E1,2.0739048E1,7.936832E1,7.976603E1,2.9644686E1,3.7480648E1,6.8156586E1],"tree_param":{"num_deleted":"0","num_feature":"19","num_nodes":"15","size_leaf_vector":"1"}},{"base_weights":[4.9097054E-2,-8.4817505E-1,5.524609E-1,-1.0463973E0,-6.365964E-1,-1.3545163E-1,8.1998944E-1,-2.2980526E-2,-1.1479251E-2,-1.6975902E-2,-7.1427756E-4,-8.513336E-3,6.7197112E-3,8.865177E-3,2.3626406E-2],"categories":[],"categories_nodes":[],"categories_segments":[],"categories_sizes":[],"default_left":[0,0,0,0,0,0,0,0,0,0,0,0,0,0,0],"id":23,"left_children":[1,3,5,7,9,11,13,-1,-1,-1,-1,-1,-1,-1,-1],"loss_changes":[1.8967685E2,5.939781E0,4.97155E1,1.5157471E0,7.4536667E0,9.282025E0,2.3269745E1,0E0,0E0,0E0,0E0,0E0,0E0,0E0,0E0],"parents":[2147483647,0,0,1,1,2,2,3,3,4,4,5,5,6,6],"right_children":[2,4,6,8,10,12,14,-1,-1,-1,-1,-1,-1,-1,-1],"split_conditions":[4.2746615E-1,1.1082694E-1,4.175388E-1,4.5742995E-1,5.2758E3,4.013104E-1,4.5742995E-1,-2.2980526E-2,-1.1479251E-2,-1.6975902E-2,-7.1427756E-4,-8.513336E-3,6.7197112E-3,8.865177E-3,2.3626406E-2],"split_indices":[14,14,11,16,18,9,16,0,0,0,0,0,0,0,0],"split_type":[0,0,0,0,0,0,0,0,0,0,0,0,0,0,0],"sum_hessian":[4.2010077E2,1.5081345E2,2.6928732E2,7.730118E1,7.351227E1,7.516441E1,1.9412292E2,6.9970245E1,7.330935E0,5.6849308E1,1.666296E1,4.749191E1,2.7672506E1,8.480864E1,1.09314285E2],"tree_param":{"num_deleted":"0","num_feature":"19","num_nodes":"15","size_leaf_vector":"1"}},{"base_weights":[4.9357987E-3,-7.866886E-1,4.480652E-1,-9.573642E-1,-4.1396144E-1,-7.016889E-2,8.359729E-1,-2.3831166E-2,-1.7237555E-2,-1.821625E-2,-4.55594E-3,8.884192E-3,-1.149805E-2,2.8303789E-2,8.025821E-3],"categories":[],"categories_nodes":[],"categories_segments":[],"categories_sizes":[],"default_left":[0,0,0,0,0,0,0,0,0,0,0,0,0,0,0],"id":24,"left_children":[1,3,5,7,9,11,13,-1,-1,-1,-1,-1,-1,-1,-1],"loss_changes":[1.4426952E2,9.069214E0,5.3244843E1,1.9926376E0,3.9325275E0,2.6633339E1,3.479361E1,0E0,0E0,0E0,0E0,0E0,0E0,0E0,0E0],"parents":[2147483647,0,0,1,1,2,2,3,3,4,4,5,5,6,6],"right_children":[2,4,6,8,10,12,14,-1,-1,-1,-1,-1,-1,-1,-1],"split_conditions":[4.2746615E-1,4.193779E-1,4.2086187E-1,1.8688694E-1,1.1082694E-1,7E0,1.5E1,-2.3831166E-2,-1.7237555E-2,-1.821625E-2,-4.55594E-3,8.884192E-3,-1.149805E-2,2.8303789E-2,8.025821E-3],"split_indices":[14,8,7,7,14,4,4,0,0,0,0,0,0,0,0],"split_type":[0,0,0,0,0,0,0,0,0,0,0,0,0,0,0],"sum_hessian":[4.114793E2,1.474867E2,2.6399258E2,1.0074021E2,4.6746483E1,1.12762314E2,1.5123029E2,4.275826E1,5.7981956E1,1.3774477E1,3.2972008E1,5.523375E1,5.752856E1,7.069934E1,8.0530945E1],"tree_param":{"num_deleted":"0","num_feature":"19","num_nodes":"15","size_leaf_vector":"1"}},{"base_weights":[6.0427714E-2,-7.716214E-1,5.4774296E-1,-9.3943566E-1,-3.8558412E-1,-1.2403124E-2,7.84595E-1,-2.1679116E-2,-6.8757883E-3,8.4850285E-3,-9.834663E-3,-2.6394401E-3,1.60186E-2,3.5051524E-3,1.9270644E-2],"categories":[],"categories_nodes":[],"categories_segments":[],"categories_sizes":[],"default_left":[0,0,0,0,0,0,0,0,0,0,0,0,0,0,0],"id":25,"left_children":[1,3,5,7,9,11,13,-1,-1,-1,-1,-1,-1,-1,-1],"loss_changes":[1.6331406E2,9.326622E0,3.3908768E1,5.6190033E0,3.0034757E0,6.480219E0,1.4560867E1,0E0,0E0,0E0,0E0,0E0,0E0,0E0,0E0],"parents":[2147483647,0,0,1,1,2,2,3,3,4,4,5,5,6,6],"right_children":[2,4,6,8,10,12,14,-1,-1,-1,-1,-1,-1,-1,-1],"split_conditions":[4.2746615E-1,4.193779E-1,4.193779E-1,1.0265E2,4.94E1,9.405E1,4.175388E-1,-2.1679116E-2,-6.8757883E-3,8.4850285E-3,-9.834663E-3,-2.6394401E-3,1.60186E-2,3.5051524E-3,1.9270644E-2],"split_indices":[14,8,8,17,17,17,11,0,0,0,0,0,0,0,0],"split_type":[0,0,0,0,0,0,0,0,0,0,0,0,0,0,0],"sum_hessian":[4.0289417E2,1.4863818E2,2.54256E2,1.0318688E2,4.54513E1,7.527565E1,1.7898035E2,8.912412E1,1.4062753E1,4.068853E0,4.138245E1,6.593532E1,9.340334E0,3.221405E1,1.467663E2],"tree_param":{"num_deleted":"0","num_feature":"19","num_nodes":"15","size_leaf_vector":"1"}},{"base_weights":[-3.6501314E-2,-5.757028E-1,4.8699734E-1,-9.3551904E-2,-9.079538E-1,9.528943E-1,-2.528601E-1,1.7733604E-2,-6.0636867E-3,-9.341326E-3,-2.1523701E-2,2.4336144E-2,9.939751E-3,4.042706E-4,-1.2895686E-2],"categories":[],"categories_nodes":[],"categories_segments":[],"categories_sizes":[],"default_left":[0,0,0,0,0,0,0,0,0,0,0,0,0,0,0],"id":26,"left_children":[1,3,5,7,9,11,13,-1,-1,-1,-1,-1,-1,-1,-1],"loss_changes":[1.1333672E2,3.1485847E1,7.029744E1,1.4749978E1,6.0482864E0,1.2035439E1,7.8589025E0,0E0,0E0,0E0,0E0,0E0,0E0,0E0,0E0],"parents":[2147483647,0,0,1,1,2,2,3,3,4,4,5,5,6,6],"right_children":[2,4,6,8,10,12,14,-1,-1,-1,-1,-1,-1,-1,-1],"split_conditions":[4.2086187E-1,1.7E1,3.4E1,2.679803E-1,2.679803E-1,1.50175E3,6E1,1.7733604E-2,-6.0636867E-3,-9.341326E-3,-2.1523701E-2,2.4336144E-2,9.939751E-3,4.042706E-4,-1.2895686E-2],"split_indices":[7,4,4,5,5,18,4,0,0,0,0,0,0,0,0],"split_type":[0,0,0,0,0,0,0,0,0,0,0,0,0,0,0],"sum_hessian":[4.014375E2,1.9796666E2,2.0347086E2,8.10457E1,1.1692096E2,1.250387E2,7.843215E1,1.37641115E1,6.728159E1,2.4158274E1,9.276269E1,8.6960266E1,3.8078434E1,4.4408833E1,3.4023315E1],"tree_param":{"num_deleted":"0","num_feature":"19","num_nodes":"15","size_leaf_vector":"1"}},{"base_weights":[-3.8634226E-2,-7.8202534E-1,3.8202712E-1,-9.4297534E-1,-1.5687847E-1,-4.435258E-2,6.542315E-1,-2.1424463E-2,-9.392185E-3,6.433687E-3,-1.0261442E-2,1.0759829E-2,-7.860239E-3,2.4215918E-2,7.935616E-3],"categories":[],"categories_nodes":[],"categories_segments":[],"categories_sizes":[],"default_left":[0,0,0,0,0,0,0,0,0,0,0,0,0,0,0],"id":27,"left_children":[1,3,5,7,9,11,13,-1,-1,-1,-1,-1,-1,-1,-1],"loss_changes":[1.2745753E2,1.45783615E1,3.0304688E1,4.1962204E0,4.7350097E0,1.8551754E1,2.1586708E1,0E0,0E0,0E0,0E0,0E0,0E0,0E0,0E0],"parents":[2147483647,0,0,1,1,2,2,3,3,4,4,5,5,6,6],"right_children":[2,4,6,8,10,12,14,-1,-1,-1,-1,-1,-1,-1,-1],"split_conditions":[4.2746615E-1,9.99E1,6.91E1,4.5742995E-1,2.6633346E-1,4E0,9E0,-2.1424463E-2,-9.392185E-3,6.433687E-3,-1.0261442E-2,1.0759829E-2,-7.860239E-3,2.4215918E-2,7.935616E-3],"split_indices":[14,17,17,16,0,4,4,0,0,0,0,0,0,0,0],"split_type":[0,0,0,0,0,0,0,0,0,0,0,0,0,0,0],"sum_hessian":[4.0728366E2,1.4737689E2,2.5990677E2,1.16911156E2,3.0465734E1,1.0094886E2,1.589579E2,1.00556816E2,1.6354342E1,1.2434001E1,1.8031734E1,3.731278E1,6.363608E1,5.622879E1,1.027291E2],"tree_param":{"num_deleted":"0","num_feature":"19","num_nodes":"15","size_leaf_vector":"1"}},{"base_weights":[4.617545E-2,-7.703558E-1,4.656022E-1,-9.3289936E-1,-3.3230546E-1,-4.977936E-2,7.063788E-1,-2.28586E-2,-1.5191439E-2,-1.7956715E-2,-1.394565E-3,5.5672564E-3,-7.2490326E-3,2.794467E-2,1.1660103E-2],"categories":[],"categories_nodes":[],"categories_segments":[],"categories_sizes":[],"default_left":[0,0,0,0,0,0,0,0,0,0,0,0,0,0,0],"id":28,"left_children":[1,3,5,7,9,11,13,-1,-1,-1,-1,-1,-1,-1,-1],"loss_changes":[1.4145433E2,9.682877E0,3.404983E1,2.9135742E0,5.1196384E0,8.099194E0,1.7137726E1,0E0,0E0,0E0,0E0,0E0,0E0,0E0,0E0],"parents":[2147483647,0,0,1,1,2,2,3,3,4,4,5,5,6,6],"right_children":[2,4,6,8,10,12,14,-1,-1,-1,-1,-1,-1,-1,-1],"split_conditions":[4.2746615E-1,9.29E1,3.3803663E-1,1.1082694E-1,3.1352717E-1,3.4645E2,1.1275E2,-2.28586E-2,-1.5191439E-2,-1.7956715E-2,-1.394565E-3,5.5672564E-3,-7.2490326E-3,2.794467E-2,1.1660103E-2],"split_indices":[14,17,15,14,3,18,18,0,0,0,0,0,0,0,0],"split_type":[0,0,0,0,0,0,0,0,0,0,0,0,0,0,0],"sum_hessian":[4.1322946E2,1.4004575E2,2.7318372E2,1.0176204E2,3.8283703E1,8.6687706E1,1.8649602E2,5.7497005E1,4.426503E1,1.259979E1,2.5683912E1,4.1595882E1,4.5091824E1,3.587736E1,1.5061867E2],"tree_param":{"num_deleted":"0","num_feature":"19","num_nodes":"15","size_leaf_vector":"1"}},{"base_weights":[-3.739797E-2,-6.741101E-1,4.4610378E-1,2.4668851E-1,-7.8828526E-1,8.9721054E-1,6.281231E-2,-8.402817E-5,1.901635E-2,-1.9979361E-2,-7.91856E-3,7.0394985E-3,2.5311176E-2,-9.638121E-3,8.945181E-3],"categories":[],"categories_nodes":[],"categories_segments":[],"categories_sizes":[],"default_left":[0,0,0,0,0,0,0,0,0,0,0,0,0,0,0],"id":29,"left_children":[1,3,5,7,9,11,13,-1,-1,-1,-1,-1,-1,-1,-1],"loss_changes":[1.2620819E2,1.8740494E1,4.001981E1,3.4004302E0,1.0330414E1,1.8171501E1,2.3935072E1,0E0,0E0,0E0,0E0,0E0,0E0,0E0,0E0],"parents":[2147483647,0,0,1,1,2,2,3,3,4,4,5,5,6,6],"right_children":[2,4,6,8,10,12,14,-1,-1,-1,-1,-1,-1,-1,-1],"split_conditions":[4.193779E-1,4E0,1.4E1,7.125E1,4.175388E-1,6.605E1,8.19E1,-8.402817E-5,1.901635E-2,-1.9979361E-2,-7.91856E-3,7.0394985E-3,2.5311176E-2,-9.638121E-3,8.945181E-3],"split_indices":[8,4,4,18,11,17,17,0,0,0,0,0,0,0,0],"split_type":[0,0,0,0,0,0,0,0,0,0,0,0,0,0,0],"sum_hessian":[4.0978812E2,1.7707324E2,2.3271487E2,1.931393E1,1.5775931E2,1.06625496E2,1.2608938E2,1.3749025E1,5.564905E0,1.1233639E2,4.5422928E1,3.812973E1,6.8495766E1,5.1495792E1,7.459358E1],"tree_param":{"num_deleted":"0","num_feature":"19","num_nodes":"15","size_leaf_vector":"1"}},{"base_weights":[1.7201282E-2,-7.710442E-1,4.5339948E-1,-9.9969226E-1,-2.8549102E-1,-5.3243804E-1,5.76779E-1,-2.4078198E-2,-1.4645586E-2,-1.2897932E-2,4.899924E-3,3.1297705E-3,-1.9076662E-2,1.901608E-2,6.0730805E-3],"categories":[],"categories_nodes":[],"categories_segments":[],"categories_sizes":[],"default_left":[0,0,0,0,0,0,0,0,0,0,0,0,0,0,0],"id":30,"left_children":[1,3,5,7,9,11,13,-1,-1,-1,-1,-1,-1,-1,-1],"loss_changes":[1.3894121E2,1.56764145E1,3.1691856E1,3.9289703E0,8.014439E0,7.5640373E0,2.167096E1,0E0,0E0,0E0,0E0,0E0,0E0,0E0,0E0],"parents":[2147483647,0,0,1,1,2,2,3,3,4,4,5,5,6,6],"right_children":[2,4,6,8,10,12,14,-1,-1,-1,-1,-1,-1,-1,-1],"split_conditions":[4.2746615E-1,4.193779E-1,1.4417745E-1,4.3464E3,1.9284603E-1,3.51E1,1.1E1,-2.4078198E-2,-1.4645586E-2,-1.2897932E-2,4.899924E-3,3.1297705E-3,-1.9076662E-2,1.901608E-2,6.0730805E-3],"split_indices":[14,8,8,18,16,18,4,0,0,0,0,0,0,0,0],"split_type":[0,0,0,0,0,0,0,0,0,0,0,0,0,0,0],"sum_hessian":[4.0429895E2,1.4384142E2,2.6045755E2,9.746993E1,4.6371475E1,2.876449E1,2.3169307E2,6.486286E1,3.2607075E1,2.8638855E1,1.773262E1,1.0027823E1,1.8736666E1,1.0751783E2,1.2417523E2],"tree_param":{"num_deleted":"0","num_feature":"19","num_nodes":"15","size_leaf_vector":"1"}},{"base_weights":[-9.544548E-2,-7.7600133E-1,3.003903E-1,-9.5460904E-1,-3.702326E-1,6.258841E-1,6.8179187E-3,-2.1811074E-2,-5.238199E-3,-2.023096E-2,-3.2217752E-3,7.136949E-3,2.6198745E-2,-4.0055597E-3,1.6694607E-2],"categories":[],"categories_nodes":[],"categories_segments":[],"categories_sizes":[],"default_left":[0,0,0,0,0,0,0,0,0,0,0,0,0,0,0],"id":31,"left_children":[1,3,5,7,9,11,13,-1,-1,-1,-1,-1,-1,-1,-1],"loss_changes":[1.075883E2,1.0345993E1,2.3940624E1,5.799858E0,5.576788E0,2.0842651E1,2.0872015E1,0E0,0E0,0E0,0E0,0E0,0E0,0E0,0E0],"parents":[2147483647,0,0,1,1,2,2,3,3,4,4,5,5,6,6],"right_children":[2,4,6,8,10,12,14,-1,-1,-1,-1,-1,-1,-1,-1],"split_conditions":[4.2746615E-1,4.193779E-1,1.1E1,1.0845E2,3.3803663E-1,7.63E1,9.735E1,-2.1811074E-2,-5.238199E-3,-2.023096E-2,-3.2217752E-3,7.136949E-3,2.6198745E-2,-4.0055597E-3,1.6694607E-2],"split_indices":[14,8,4,17,15,17,17,0,0,0,0,0,0,0,0],"split_type":[0,0,0,0,0,0,0,0,0,0,0,0,0,0,0],"sum_hessian":[3.9897083E2,1.4692867E2,2.5204214E2,1.0162869E2,4.5299973E1,1.1915341E2,1.3288873E2,9.039605E1,1.1232643E1,1.1821003E1,3.347897E1,8.1944145E1,3.7209267E1,1.06028046E2,2.6860695E1],"tree_param":{"num_deleted":"0","num_feature":"19","num_nodes":"15","size_leaf_vector":"1"}},{"base_weights":[-3.4821085E-3,-7.769485E-1,4.1738778E-1,-9.225122E-1,-4.008942E-1,-3.538888E-2,7.363071E-1,-2.0617584E-2,-1.1225059E-2,-1.5886433E-2,-2.3815935E-3,9.2965355E-3,-7.1416637E-3,2.7571674E-2,7.5760554E-3],"categories":[],"categories_nodes":[],"categories_segments":[],"categories_sizes":[],"default_left":[0,0,0,0,0,0,0,0,0,0,0,0,0,0,0],"id":32,"left_children":[1,3,5,7,9,11,13,-1,-1,-1,-1,-1,-1,-1,-1],"loss_changes":[1.3095988E2,7.463333E0,3.7729374E1,2.0307236E0,3.9013658E0,1.5629945E1,3.2782303E1,0E0,0E0,0E0,0E0,0E0,0E0,0E0,0E0],"parents":[2147483647,0,0,1,1,2,2,3,3,4,4,5,5,6,6],"right_children":[2,4,6,8,10,12,14,-1,-1,-1,-1,-1,-1,-1,-1],"split_conditions":[4.2746615E-1,4.193779E-1,4.2086187E-1,1.033E2,8.1E1,4E0,1.1E1,-2.0617584E-2,-1.1225059E-2,-1.5886433E-2,-2.3815935E-3,9.2965355E-3,-7.1416637E-3,2.7571674E-2,7.5760554E-3],"split_indices":[14,8,7,17,17,4,4,0,0,0,0,0,0,0,0],"split_type":[0,0,0,0,0,0,0,0,0,0,0,0,0,0,0],"sum_hessian":[4.020397E2,1.418632E2,2.601765E2,1.0183436E2,4.0028843E1,1.0723012E2,1.5294638E2,8.761253E1,1.4221826E1,1.7513016E1,2.251583E1,4.14528E1,6.577731E1,5.996101E1,9.2985374E1],"tree_param":{"num_deleted":"0","num_feature":"19","num_nodes":"15","size_leaf_vector":"1"}},{"base_weights":[-9.251646E-3,-6.50794E-1,4.5022026E-1,-1.103749E0,-4.428007E-1,9.2547315E-1,-6.353044E-2,-2.4136228E-2,-1.6270116E-2,7.5404113E-3,-1.1253802E-2,1.2579626E-2,3.0682357E-2,-1.1855907E-2,2.7114546E-3],"categories":[],"categories_nodes":[],"categories_segments":[],"categories_sizes":[],"default_left":[0,0,0,0,0,0,0,0,0,0,0,0,0,0,0],"id":33,"left_children":[1,3,5,7,9,11,13,-1,-1,-1,-1,-1,-1,-1,-1],"loss_changes":[1.2017645E2,1.5688644E1,5.812604E1,3.7532806E-1,8.833227E0,2.1135765E1,1.1102391E1,0E0,0E0,0E0,0E0,0E0,0E0,0E0,0E0],"parents":[2147483647,0,0,1,1,2,2,3,3,4,4,5,5,6,6],"right_children":[2,4,6,8,10,12,14,-1,-1,-1,-1,-1,-1,-1,-1],"split_conditions":[4.193779E-1,1.1082694E-1,1.7E1,6.95115E3,2E0,7.89E1,4.2086187E-1,-2.4136228E-2,-1.6270116E-2,7.5404113E-3,-1.1253802E-2,1.2579626E-2,3.0682357E-2,-1.1855907E-2,2.7114546E-3],"split_indices":[8,14,4,18,4,17,7,0,0,0,0,0,0,0,0],"split_type":[0,0,0,0,0,0,0,0,0,0,0,0,0,0,0],"sum_hessian":[4.0753183E2,1.7027577E2,2.3725606E2,5.3234375E1,1.170414E2,1.23473976E2,1.1378208E2,4.5980713E1,7.253664E0,1.1978124E1,1.0506327E2,7.711839E1,4.6355583E1,3.191394E1,8.186814E1],"tree_param":{"num_deleted":"0","num_feature":"19","num_nodes":"15","size_leaf_vector":"1"}},{"base_weights":[-2.6200837E-2,-8.523241E-1,4.0464357E-1,-9.729085E-1,-3.9508498E-1,-6.1475087E-2,7.0892304E-1,-1.3762435E-2,-2.1436147E-2,3.7385407E-3,-1.9076992E-2,1.322533E-2,-5.7223476E-3,1.6801309E-2,-4.3730516E-4],"categories":[],"categories_nodes":[],"categories_segments":[],"categories_sizes":[],"default_left":[0,0,0,0,0,0,0,0,0,0,0,0,0,0,0],"id":34,"left_children":[1,3,5,7,9,11,13,-1,-1,-1,-1,-1,-1,-1,-1],"loss_changes":[1.4181345E2,7.22171E0,3.723513E1,1.2849197E0,8.692465E0,1.4975465E1,1.0813431E1,0E0,0E0,0E0,0E0,0E0,0E0,0E0,0E0],"parents":[2147483647,0,0,1,1,2,2,3,3,4,4,5,5,6,6],"right_children":[2,4,6,8,10,12,14,-1,-1,-1,-1,-1,-1,-1,-1],"split_conditions":[4.2746615E-1,1.0055E2,4.2086187E-1,2.2E1,7.03145E3,2.5027934E-1,4.8E1,-1.3762435E-2,-2.1436147E-2,3.7385407E-3,-1.9076992E-2,1.322533E-2,-5.7223476E-3,1.6801309E-2,-4.3730516E-4],"split_indices":[14,17,7,4,18,6,4,0,0,0,0,0,0,0,0],"split_type":[0,0,0,0,0,0,0,0,0,0,0,0,0,0,0],"sum_hessian":[3.9813602E2,1.366466E2,2.614894E2,1.0773301E2,2.8913605E1,1.02984985E2,1.5850444E2,1.5029413E1,9.27036E1,1.3464275E1,1.5449328E1,2.3838924E1,7.914606E1,1.4104466E2,1.745977E1],"tree_param":{"num_deleted":"0","num_feature":"19","num_nodes":"15","size_leaf_vector":"1"}},{"base_weights":[2.5006944E-2,-6.9447255E-1,3.807542E-1,-8.846107E-1,-2.966862E-1,-6.0086828E-2,6.8713087E-1,-2.0221572E-2,-1.28689185E-2,-7.4356364E-4,-1.1911316E-2,4.2476226E-3,-1.6268566E-2,2.4320092E-2,7.2572376E-3],"categories":[],"categories_nodes":[],"categories_segments":[],"categories_sizes":[],"default_left":[0,0,0,0,0,0,0,0,0,0,0,0,0,0,0],"id":35,"left_children":[1,3,5,7,9,11,13,-1,-1,-1,-1,-1,-1,-1,-1],"loss_changes":[1.0239885E2,9.732697E0,3.6353386E1,1.5546036E0,2.9195302E0,2.0722397E1,2.5185814E1,0E0,0E0,0E0,0E0,0E0,0E0,0E0,0E0],"parents":[2147483647,0,0,1,1,2,2,3,3,4,4,5,5,6,6],"right_children":[2,4,6,8,10,12,14,-1,-1,-1,-1,-1,-1,-1,-1],"split_conditions":[4.2746615E-1,4.193779E-1,4.2086187E-1,4.013104E-1,2.6633346E-1,1.7E1,1.1E1,-2.0221572E-2,-1.28689185E-2,-7.4356364E-4,-1.1911316E-2,4.2476226E-3,-1.6268566E-2,2.4320092E-2,7.2572376E-3],"split_indices":[14,8,7,9,0,4,4,0,0,0,0,0,0,0,0],"split_type":[0,0,0,0,0,0,0,0,0,0,0,0,0,0,0],"sum_hessian":[4.0033963E2,1.3224275E2,2.680969E2,8.90845E1,4.3158245E1,1.09622955E2,1.5847392E2,6.827275E1,2.0811754E1,2.2407938E1,2.0750309E1,7.996106E1,2.9661901E1,6.619686E1,9.227706E1],"tree_param":{"num_deleted":"0","num_feature":"19","num_nodes":"15","size_leaf_vector":"1"}},{"base_weights":[-1.35421585E-2,-7.204736E-1,3.5882005E-1,-9.24435E-1,-1.8344402E-1,-6.342428E-2,6.419336E-1,-2.1152414E-2,-8.135385E-3,2.3193872E-3,-1.4782574E-2,6.199346E-3,-7.6050595E-3,2.1505514E-2,9.316097E-3],"categories":[],"categories_nodes":[],"categories_segments":[],"categories_sizes":[],"default_left":[0,0,0,0,0,0,0,0,0,0,0,0,0,0,0],"id":36,"left_children":[1,3,5,7,9,11,13,-1,-1,-1,-1,-1,-1,-1,-1],"loss_changes":[1.0288593E2,1.4528801E1,3.0685883E1,4.067505E0,5.875166E0,1.0994417E1,1.1288479E1,0E0,0E0,0E0,0E0,0E0,0E0,0E0,0E0],"parents":[2147483647,0,0,1,1,2,2,3,3,4,4,5,5,6,6],"right_children":[2,4,6,8,10,12,14,-1,-1,-1,-1,-1,-1,-1,-1],"split_conditions":[4.2746615E-1,9.385E1,4.2086187E-1,4.5742995E-1,6.9E1,6E0,9E0,-2.1152414E-2,-8.135385E-3,2.3193872E-3,-1.4782574E-2,6.199346E-3,-7.6050595E-3,2.1505514E-2,9.316097E-3],"split_indices":[14,17,7,16,4,4,4,0,0,0,0,0,0,0,0],"split_type":[0,0,0,0,0,0,0,0,0,0,0,0,0,0,0],"sum_hessian":[3.905322E2,1.3494513E2,2.5558705E2,9.749179E1,3.7453342E1,1.0226531E2,1.5332173E2,8.394903E1,1.3542758E1,2.3668879E1,1.3784465E1,4.613691E1,5.6128407E1,5.1814E1,1.0150774E2],"tree_param":{"num_deleted":"0","num_feature":"19","num_nodes":"15","size_leaf_vector":"1"}},{"base_weights":[-2.1863807E-2,-4.08537E-1,5.5883056E-1,7.642648E-2,-6.387098E-1,1.3388764E0,4.2140457E-1,-8.26783E-3,1.031324E-2,-1.8422915E-2,-6.7339493E-3,1.4356924E-2,3.265914E-2,2.8337021E-3,1.4843632E-2],"categories":[],"categories_nodes":[],"categories_segments":[],"categories_sizes":[],"default_left":[0,0,0,0,0,0,0,0,0,0,0,0,0,0,0],"id":37,"left_children":[1,3,5,7,9,11,13,-1,-1,-1,-1,-1,-1,-1,-1],"loss_changes":[8.7020905E1,2.6133247E1,1.6185055E1,1.4609679E1,1.1770073E1,2.7558937E0,1.0607889E1,0E0,0E0,0E0,0E0,0E0,0E0,0E0,0E0],"parents":[2147483647,0,0,1,1,2,2,3,3,4,4,5,5,6,6],"right_children":[2,4,6,8,10,12,14,-1,-1,-1,-1,-1,-1,-1,-1],"split_conditions":[4.5742995E-1,1.3E1,2E0,4.193779E-1,4.2086187E-1,3.3803663E-1,2.8786612E-1,-8.26783E-3,1.031324E-2,-1.8422915E-2,-6.7339493E-3,1.4356924E-2,3.265914E-2,2.8337021E-3,1.4843632E-2],"split_indices":[16,4,4,8,7,15,6,0,0,0,0,0,0,0,0],"split_type":[0,0,0,0,0,0,0,0,0,0,0,0,0,0,0],"sum_hessian":[3.8769778E2,2.3296422E2,1.5473355E2,7.466442E1,1.582998E2,2.2923992E1,1.3180956E2,3.4742393E1,3.9922028E1,8.985532E1,6.844448E1,5.9903092E0,1.6933681E1,6.628419E1,6.552537E1],"tree_param":{"num_deleted":"0","num_feature":"19","num_nodes":"15","size_leaf_vector":"1"}},{"base_weights":[2.6318934E-3,-7.2083575E-1,3.7417385E-1,-8.9337564E-1,-3.3129427E-1,-1.8609965E-1,5.9610957E-1,-2.3086386E-2,-1.5694058E-2,-1.2828073E-2,8.191119E-3,1.0567598E-2,-6.875792E-3,-1.7460854E-3,1.5048418E-2],"categories":[],"categories_nodes":[],"categories_segments":[],"categories_sizes":[],"default_left":[0,0,0,0,0,0,0,0,0,0,0,0,0,0,0],"id":38,"left_children":[1,3,5,7,9,11,13,-1,-1,-1,-1,-1,-1,-1,-1],"loss_changes":[1.0562341E2,8.674217E0,3.2425697E1,2.3418045E0,8.403973E0,7.141393E0,1.5503784E1,0E0,0E0,0E0,0E0,0E0,0E0,0E0,0E0],"parents":[2147483647,0,0,1,1,2,2,3,3,4,4,5,5,6,6],"right_children":[2,4,6,8,10,12,14,-1,-1,-1,-1,-1,-1,-1,-1],"split_conditions":[4.2746615E-1,9.04E1,4.193779E-1,3.11E1,4.013104E-1,3.51E1,4.175388E-1,-2.3086386E-2,-1.5694058E-2,-1.2828073E-2,8.191119E-3,1.0567598E-2,-6.875792E-3,-1.7460854E-3,1.5048418E-2],"split_indices":[14,17,8,17,9,18,11,0,0,0,0,0,0,0,0],"split_type":[0,0,0,0,0,0,0,0,0,0,0,0,0,0,0],"sum_hessian":[3.9323145E2,1.3321632E2,2.600151E2,9.19152E1,4.1301117E1,7.3483376E1,1.8653174E2,3.7240726E1,5.4674477E1,2.9978884E1,1.1322234E1,1.22433E1,6.1240074E1,2.7957722E1,1.5857402E2],"tree_param":{"num_deleted":"0","num_feature":"19","num_nodes":"15","size_leaf_vector":"1"}},{"base_weights":[2.854032E-3,-3.4628546E-1,5.1481384E-1,1.3930477E-1,-6.1820126E-1,7.175066E-1,1.7498925E-1,-7.095496E-3,1.1827753E-2,-1.6578745E-2,-4.4677352E-5,1.3141258E-2,2.9123157E-2,-4.746889E-3,1.3859208E-2],"categories":[],"categories_nodes":[],"categories_segments":[],"categories_sizes":[],"default_left":[0,0,0,0,0,0,0,0,0,0,0,0,0,0,0],"id":39,"left_children":[1,3,5,7,9,11,13,-1,-1,-1,-1,-1,-1,-1,-1],"loss_changes":[6.910848E1,3.0409288E1,1.0606525E1,1.6689451E1,1.5444881E1,5.51923E0,1.1608203E1,0E0,0E0,0E0,0E0,0E0,0E0,0E0,0E0],"parents":[2147483647,0,0,1,1,2,2,3,3,4,4,5,5,6,6],"right_children":[2,4,6,8,10,12,14,-1,-1,-1,-1,-1,-1,-1,-1],"split_conditions":[4.5742995E-1,1.7E1,2.6E1,4.193779E-1,9.86E1,9.5E1,9.465E1,-7.095496E-3,1.1827753E-2,-1.6578745E-2,-4.4677352E-5,1.3141258E-2,2.9123157E-2,-4.746889E-3,1.3859208E-2],"split_indices":[16,4,4,8,17,17,17,0,0,0,0,0,0,0,0],"split_type":[0,0,0,0,0,0,0,0,0,0,0,0,0,0,0],"sum_hessian":[3.8640836E2,2.2947273E2,1.5693562E2,8.2072464E1,1.4740027E2,9.7880066E1,5.9055557E1,3.837168E1,4.3700787E1,1.1493127E2,3.2469E1,8.648065E1,1.1399414E1,3.2081833E1,2.6973724E1],"tree_param":{"num_deleted":"0","num_feature":"19","num_nodes":"15","size_leaf_vector":"1"}},{"base_weights":[7.0798196E-2,-5.4680675E-1,4.8195082E-1,4.348473E-1,-6.2426656E-1,7.6023173E-1,9.595259E-2,1.4269039E-3,1.25594735E-2,-1.7235035E-2,-2.8326102E-3,1.01978E-2,1.8980084E-2,-1.0082749E-2,6.120429E-3],"categories":[],"categories_nodes":[],"categories_segments":[],"categories_sizes":[],"default_left":[0,0,0,0,0,0,0,0,0,0,0,0,0,0,0],"id":40,"left_children":[1,3,5,7,9,11,13,-1,-1,-1,-1,-1,-1,-1,-1],"loss_changes":[9.885686E1,1.1860046E1,2.4937405E1,5.184541E-1,1.370409E1,5.0536575E0,1.1061535E1,0E0,0E0,0E0,0E0,0E0,0E0,0E0,0E0],"parents":[2147483647,0,0,1,1,2,2,3,3,4,4,5,5,6,6],"right_children":[2,4,6,8,10,12,14,-1,-1,-1,-1,-1,-1,-1,-1],"split_conditions":[4.193779E-1,2.44E1,2.2E1,1.97E1,4.2086187E-1,4.2086187E-1,4.2086187E-1,1.4269039E-3,1.25594735E-2,-1.7235035E-2,-2.8326102E-3,1.01978E-2,1.8980084E-2,-1.0082749E-2,6.120429E-3],"split_indices":[8,18,4,18,7,7,7,0,0,0,0,0,0,0,0],"split_type":[0,0,0,0,0,0,0,0,0,0,0,0,0,0,0],"sum_hessian":[3.8935745E2,1.5538876E2,2.3396869E2,1.1148482E1,1.4424028E2,1.3560951E2,9.835919E1,3.8721333E0,7.2763486E0,1.02458305E2,4.178198E1,4.7356907E1,8.82526E1,2.4637827E1,7.372136E1],"tree_param":{"num_deleted":"0","num_feature":"19","num_nodes":"15","size_leaf_vector":"1"}},{"base_weights":[-1.8346997E-2,-5.7663417E-1,3.7086767E-1,-2.2627974E-1,-8.083406E-1,7.0018864E-1,-1.1003804E-1,-8.168517E-3,4.0419877E-2,-1.8838678E-2,-7.8284005E-3,1.0941116E-2,2.4668181E-2,-1.1186498E-2,4.8702164E-3],"categories":[],"categories_nodes":[],"categories_segments":[],"categories_sizes":[],"default_left":[0,0,0,0,0,0,0,0,0,0,0,0,0,0,0],"id":41,"left_children":[1,3,5,7,9,11,13,-1,-1,-1,-1,-1,-1,-1,-1],"loss_changes":[8.48178E1,1.2792786E1,3.650123E1,2.2226114E1,3.4630241E0,1.1218002E1,1.3544502E1,0E0,0E0,0E0,0E0,0E0,0E0,0E0,0E0],"parents":[2147483647,0,0,1,1,2,2,3,3,4,4,5,5,6,6],"right_children":[2,4,6,8,10,12,14,-1,-1,-1,-1,-1,-1,-1,-1],"split_conditions":[4.193779E-1,2.3E1,2.6E1,9E1,1.0265E2,8.515E1,1.9284603E-1,-8.168517E-3,4.0419877E-2,-1.8838678E-2,-7.8284005E-3,1.0941116E-2,2.4668181E-2,-1.1186498E-2,4.8702164E-3],"split_indices":[8,4,4,17,17,17,16,0,0,0,0,0,0,0,0],"split_type":[0,0,0,0,0,0,0,0,0,0,0,0,0,0,0],"sum_hessian":[3.9011398E2,1.6049016E2,2.2962381E2,6.428172E1,9.620844E1,1.3657156E2,9.305225E1,5.98565E1,4.425224E0,7.933826E1,1.687018E1,9.963613E1,3.6935425E1,4.1898186E1,5.1154068E1],"tree_param":{"num_deleted":"0","num_feature":"19","num_nodes":"15","size_leaf_vector":"1"}},{"base_weights":[1.755669E-2,-5.1700795E-1,3.7406227E-1,-1.4939433E-1,-7.143153E-1,8.1246656E-1,7.348374E-2,-5.802463E-3,1.9667683E-2,-1.9702021E-2,-6.1690514E-3,9.719925E-3,2.1562234E-2,-1.1341108E-2,5.0243093E-3],"categories":[],"categories_nodes":[],"categories_segments":[],"categories_sizes":[],"default_left":[0,0,0,0,0,0,0,0,0,0,0,0,0,0,0],"id":42,"left_children":[1,3,5,7,9,11,13,-1,-1,-1,-1,-1,-1,-1,-1],"loss_changes":[7.4546936E1,1.11410675E1,3.076857E1,7.4546337E0,9.291042E0,6.8232384E0,1.4177859E1,0E0,0E0,0E0,0E0,0E0,0E0,0E0,0E0],"parents":[2147483647,0,0,1,1,2,2,3,3,4,4,5,5,6,6],"right_children":[2,4,6,8,10,12,14,-1,-1,-1,-1,-1,-1,-1,-1],"split_conditions":[4.193779E-1,1.8E1,1.1E1,8.9355E2,4.2086187E-1,4.2086187E-1,1.6157556E-1,-5.802463E-3,1.9667683E-2,-1.9702021E-2,-6.1690514E-3,9.719925E-3,2.1562234E-2,-1.1341108E-2,5.0243093E-3],"split_indices":[8,4,4,18,7,7,16,0,0,0,0,0,0,0,0],"split_type":[0,0,0,0,0,0,0,0,0,0,0,0,0,0,0],"sum_hessian":[3.913303E2,1.563102E2,2.350201E2,5.4998787E1,1.0131141E2,9.5283E1,1.3973709E2,4.9426937E1,5.571852E0,6.564634E1,3.5665066E1,3.6756733E1,5.8526264E1,2.9443836E1,1.1029326E2],"tree_param":{"num_deleted":"0","num_feature":"19","num_nodes":"15","size_leaf_vector":"1"}},{"base_weights":[-1.2134541E-2,-6.1247385E-1,2.902574E-1,-8.424758E-1,-1.8965955E-1,5.417075E-2,6.855114E-1,-2.1170007E-2,-3.91707E-3,-1.7629405E-2,1.4829333E-3,1.091118E-2,-2.793988E-3,1.73004E-2,-2.6465082E-3],"categories":[],"categories_nodes":[],"categories_segments":[],"categories_sizes":[],"default_left":[0,0,0,0,0,0,0,0,0,0,0,0,0,0,0],"id":43,"left_children":[1,3,5,7,9,11,13,-1,-1,-1,-1,-1,-1,-1,-1],"loss_changes":[6.911841E1,1.2178772E1,2.3410313E1,8.723804E0,7.854182E0,1.3929274E1,1.0790321E1,0E0,0E0,0E0,0E0,0E0,0E0,0E0,0E0],"parents":[2147483647,0,0,1,1,2,2,3,3,4,4,5,5,6,6],"right_children":[2,4,6,8,10,12,14,-1,-1,-1,-1,-1,-1,-1,-1],"split_conditions":[4.2746615E-1,4.2086187E-1,2.8786612E-1,4.193779E-1,3.1352717E-1,1.1275E2,4.68915E3,-2.1170007E-2,-3.91707E-3,-1.7629405E-2,1.4829333E-3,1.091118E-2,-2.793988E-3,1.73004E-2,-2.6465082E-3],"split_indices":[14,7,6,8,3,18,18,0,0,0,0,0,0,0,0],"split_type":[0,0,0,0,0,0,0,0,0,0,0,0,0,0,0],"sum_hessian":[3.8032672E2,1.2765027E2,2.5267645E2,8.232521E1,4.5325054E1,1.5855247E2,9.412398E1,6.536582E1,1.6959393E1,1.3199644E1,3.212541E1,4.5816372E1,1.127361E2,8.058825E1,1.3535726E1],"tree_param":{"num_deleted":"0","num_feature":"19","num_nodes":"15","size_leaf_vector":"1"}},{"base_weights":[-4.157347E-2,-5.760142E-1,3.3059633E-1,-7.245606E-1,-1.5694894E-1,8.91277E-1,-5.1272754E-2,-5.7139513E-3,-1.7550256E-2,6.9169337E-3,-9.985494E-3,1.4808809E-2,2.840636E-2,-6.4008683E-3,4.5537264E-3],"categories":[],"categories_nodes":[],"categories_segments":[],"categories_sizes":[],"default_left":[0,0,0,0,0,0,0,0,0,0,0,0,0,0,0],"id":44,"left_children":[1,3,5,7,9,11,13,-1,-1,-1,-1,-1,-1,-1,-1],"loss_changes":[7.6750114E1,9.668095E0,4.88042E1,5.654995E0,6.5385942E0,7.4400864E0,9.203737E0,0E0,0E0,0E0,0E0,0E0,0E0,0E0,0E0],"parents":[2147483647,0,0,1,1,2,2,3,3,4,4,5,5,6,6],"right_children":[2,4,6,8,10,12,14,-1,-1,-1,-1,-1,-1,-1,-1],"split_conditions":[4.175388E-1,3.895631E-1,1.1E1,7E0,2.3E1,2.8786612E-1,4.5742995E-1,-5.7139513E-3,-1.7550256E-2,6.9169337E-3,-9.985494E-3,1.4808809E-2,2.840636E-2,-6.4008683E-3,4.5537264E-3],"split_indices":[11,10,4,4,4,6,16,0,0,0,0,0,0,0,0],"split_type":[0,0,0,0,0,0,0,0,0,0,0,0,0,0,0],"sum_hessian":[3.8557907E2,1.5853276E2,2.2704633E2,1.1664122E2,4.1891537E1,9.22257E1,1.3482062E2,2.3562387E1,9.3078835E1,1.6305578E1,2.558596E1,6.6205864E1,2.6019838E1,6.9717094E1,6.510352E1],"tree_param":{"num_deleted":"0","num_feature":"19","num_nodes":"15","size_leaf_vector":"1"}},{"base_weights":[-1.39958365E-2,-6.974386E-1,3.10435E-1,-8.6883074E-1,-1.7817745E-2,-2.4200438E-1,5.28226E-1,-2.18678E-2,-1.3842158E-2,-8.98738E-3,1.4034692E-2,-2.6185834E-3,-1.903744E-2,1.9403921E-2,4.6373317E-3],"categories":[],"categories_nodes":[],"categories_segments":[],"categories_sizes":[],"default_left":[0,0,0,0,0,0,0,0,0,0,0,0,0,0,0],"id":45,"left_children":[1,3,5,7,9,11,13,-1,-1,-1,-1,-1,-1,-1,-1],"loss_changes":[8.499297E1,1.4182205E1,3.127981E1,3.1775665E0,7.0361547E0,5.462487E0,2.2449703E1,0E0,0E0,0E0,0E0,0E0,0E0,0E0,0E0],"parents":[2147483647,0,0,1,1,2,2,3,3,4,4,5,5,6,6],"right_children":[2,4,6,8,10,12,14,-1,-1,-1,-1,-1,-1,-1,-1],"split_conditions":[4.2746615E-1,4.5742995E-1,4.193779E-1,1.1082694E-1,4.013104E-1,2.83945E3,4.852E2,-2.18678E-2,-1.3842158E-2,-8.98738E-3,1.4034692E-2,-2.6185834E-3,-1.903744E-2,1.9403921E-2,4.6373317E-3],"split_indices":[14,16,8,14,9,18,18,0,0,0,0,0,0,0,0],"split_type":[0,0,0,0,0,0,0,0,0,0,0,0,0,0,0],"sum_hessian":[3.8291263E2,1.23482315E2,2.5943033E2,9.8345116E1,2.51372E1,7.306138E1,1.8636896E2,5.3128338E1,4.5216778E1,1.5940437E1,9.196762E0,6.2416645E1,1.0644731E1,8.100577E1,1.0536318E2],"tree_param":{"num_deleted":"0","num_feature":"19","num_nodes":"15","size_leaf_vector":"1"}},{"base_weights":[3.132432E-2,-4.685112E-1,3.590255E-1,-1.0280826E-1,-7.6540697E-1,8.38597E-1,1.1688761E-1,-5.1435707E-3,4.6144538E-2,-2.1870438E-2,-1.2677446E-2,1.3991192E-2,3.1594157E-2,-7.858274E-3,6.937826E-3],"categories":[],"categories_nodes":[],"categories_segments":[],"categories_sizes":[],"default_left":[0,0,0,0,0,0,0,0,0,0,0,0,0,0,0],"id":46,"left_children":[1,3,5,7,9,11,13,-1,-1,-1,-1,-1,-1,-1,-1],"loss_changes":[6.2818523E1,1.6268383E1,2.6724012E1,2.194655E1,3.344265E0,8.3844795E0,1.6225143E1,0E0,0E0,0E0,0E0,0E0,0E0,0E0,0E0],"parents":[2147483647,0,0,1,1,2,2,3,3,4,4,5,5,6,6],"right_children":[2,4,6,8,10,12,14,-1,-1,-1,-1,-1,-1,-1,-1],"split_conditions":[4.193779E-1,2.9E1,8E0,9.34E1,5.545E1,8.48E1,7.385E1,-5.1435707E-3,4.6144538E-2,-2.1870438E-2,-1.2677446E-2,1.3991192E-2,3.1594157E-2,-7.858274E-3,6.937826E-3],"split_indices":[8,4,4,17,17,17,17,0,0,0,0,0,0,0,0],"split_type":[0,0,0,0,0,0,0,0,0,0,0,0,0,0,0],"sum_hessian":[3.8365897E2,1.516519E2,2.3200708E2,6.8297516E1,8.3354385E1,7.7521324E1,1.5448575E2,6.441663E1,3.8808787E0,3.0118767E1,5.3235622E1,6.1937927E1,1.5583393E1,4.6511353E1,1.079744E2],"tree_param":{"num_deleted":"0","num_feature":"19","num_nodes":"15","size_leaf_vector":"1"}},{"base_weights":[-0E0,-6.3576895E-1,2.8741863E-1,-9.010595E-1,-3.4995428E-1,-1.4507699E-1,4.7018763E-1,-1.9502724E-2,-1.40491305E-2,-1.2760091E-2,8.222571E-3,-4.912475E-3,1.3279083E-2,2.325685E-3,1.2725933E-2],"categories":[],"categories_nodes":[],"categories_segments":[],"categories_sizes":[],"default_left":[0,0,0,0,0,0,0,0,0,0,0,0,0,0,0],"id":47,"left_children":[1,3,5,7,9,11,13,-1,-1,-1,-1,-1,-1,-1,-1],"loss_changes":[7.0431145E1,8.809521E0,2.1073673E1,4.240036E-2,1.1195206E1,5.3544965E0,9.008888E0,0E0,0E0,0E0,0E0,0E0,0E0,0E0,0E0],"parents":[2147483647,0,0,1,1,2,2,3,3,4,4,5,5,6,6],"right_children":[2,4,6,8,10,12,14,-1,-1,-1,-1,-1,-1,-1,-1],"split_conditions":[4.2746615E-1,1.1082694E-1,4.193779E-1,4.5742995E-1,9.99E1,9.805E1,3.3803663E-1,-1.9502724E-2,-1.40491305E-2,-1.2760091E-2,8.222571E-3,-4.912475E-3,1.3279083E-2,2.325685E-3,1.2725933E-2],"split_indices":[14,14,8,16,17,17,15,0,0,0,0,0,0,0,0],"split_type":[0,0,0,0,0,0,0,0,0,0,0,0,0,0,0],"sum_hessian":[3.856034E2,1.1994885E2,2.6565454E2,6.1790783E1,5.815807E1,7.854533E1,1.8710922E2,5.4111736E1,7.679049E0,4.3367504E1,1.4790564E1,7.074068E1,7.804647E0,5.1949783E1,1.3515944E2],"tree_param":{"num_deleted":"0","num_feature":"19","num_nodes":"15","size_leaf_vector":"1"}},{"base_weights":[-1.9413909E-2,-6.854318E-1,2.8087312E-1,-9.943163E-1,-5.516723E-1,-1.6834693E-1,4.598623E-1,-2.2238152E-2,-1.6234847E-2,-8.6967135E-3,-2.128128E-2,1.637945E-2,-7.22325E-3,-6.8504753E-4,1.3283366E-2],"categories":[],"categories_nodes":[],"categories_segments":[],"categories_sizes":[],"default_left":[0,0,0,0,0,0,0,0,0,0,0,0,0,0,0],"id":48,"left_children":[1,3,5,7,9,11,13,-1,-1,-1,-1,-1,-1,-1,-1],"loss_changes":[7.7555374E1,4.628895E0,2.1512735E1,1.0002518E-1,5.046543E0,1.2533796E1,1.6448677E1,0E0,0E0,0E0,0E0,0E0,0E0,0E0,0E0],"parents":[2147483647,0,0,1,1,2,2,3,3,4,4,5,5,6,6],"right_children":[2,4,6,8,10,12,14,-1,-1,-1,-1,-1,-1,-1,-1],"split_conditions":[4.2746615E-1,4.465E1,4.175388E-1,2.8786612E-1,7.1E1,2.44E1,3.3803663E-1,-2.2238152E-2,-1.6234847E-2,-8.6967135E-3,-2.128128E-2,1.637945E-2,-7.22325E-3,-6.8504753E-4,1.3283366E-2],"split_indices":[14,17,11,6,4,18,15,0,0,0,0,0,0,0,0],"split_type":[0,0,0,0,0,0,0,0,0,0,0,0,0,0,0],"sum_hessian":[3.8731558E2,1.2059515E2,2.6672043E2,3.5920143E1,8.467501E1,7.5631966E1,1.9108846E2,2.6864891E1,9.055253E0,6.5704155E1,1.8970854E1,1.1624745E1,6.400722E1,4.9399986E1,1.4168846E2],"tree_param":{"num_deleted":"0","num_feature":"19","num_nodes":"15","size_leaf_vector":"1"}},{"base_weights":[1.0771016E-3,-4.4115394E-1,4.145934E-1,1.7283012E-1,-6.9534403E-1,7.56231E-1,-1.3840617E-1,-1.4572366E-2,6.0599083E-3,-1.7940518E-2,-7.7274097E-3,3.5179325E-3,1.9258106E-2,-9.255362E-4,-2.1497037E-2],"categories":[],"categories_nodes":[],"categories_segments":[],"categories_sizes":[],"default_left":[0,0,0,0,0,0,0,0,0,0,0,0,0,0,0],"id":49,"left_children":[1,3,5,7,9,11,13,-1,-1,-1,-1,-1,-1,-1,-1],"loss_changes":[7.126803E1,2.9471416E1,3.8243683E1,5.424754E0,6.6857147E0,1.1644257E1,6.1718936E0,0E0,0E0,0E0,0E0,0E0,0E0,0E0,0E0],"parents":[2147483647,0,0,1,1,2,2,3,3,4,4,5,5,6,6],"right_children":[2,4,6,8,10,12,14,-1,-1,-1,-1,-1,-1,-1,-1],"split_conditions":[4.2086187E-1,6E0,3.4E1,1.98E1,4.175388E-1,3.3803663E-1,7.2E1,-1.4572366E-2,6.0599083E-3,-1.7940518E-2,-7.7274097E-3,3.5179325E-3,1.9258106E-2,-9.255362E-4,-2.1497037E-2],"split_indices":[7,4,4,17,11,15,4,0,0,0,0,0,0,0,0],"split_type":[0,0,0,0,0,0,0,0,0,0,0,0,0,0,0],"sum_hessian":[3.8974503E2,1.8806766E2,2.0167737E2,5.4802208E1,1.3326546E2,1.24915535E2,7.676183E1,6.231788E0,4.857042E1,8.9042E1,4.4223454E1,2.72343E1,9.768124E1,6.961655E1,7.1452866E0],"tree_param":{"num_deleted":"0","num_feature":"19","num_nodes":"15","size_leaf_vector":"1"}},{"base_weights":[-1.3594233E-2,-3.224938E-1,4.123821E-1,-4.1001752E-2,-7.9393166E-1,6.630509E-1,5.2920975E-2,-2.589857E-3,2.3661692E-2,-1.9364322E-2,-9.844488E-3,9.265001E-3,2.1732327E-2,-1.6340718E-2,4.1567828E-3],"categories":[],"categories_nodes":[],"categories_segments":[],"categories_sizes":[],"default_left":[0,0,0,0,0,0,0,0,0,0,0,0,0,0,0],"id":50,"left_children":[1,3,5,7,9,11,13,-1,-1,-1,-1,-1,-1,-1,-1],"loss_changes":[4.8573605E1,2.8259157E1,1.3796518E1,1.2737929E1,3.0286179E0,7.166744E0,7.602985E0,0E0,0E0,0E0,0E0,0E0,0E0,0E0,0E0],"parents":[2147483647,0,0,1,1,2,2,3,3,4,4,5,5,6,6],"right_children":[2,4,6,8,10,12,14,-1,-1,-1,-1,-1,-1,-1,-1],"split_conditions":[4.5742995E-1,4E1,2.3E1,9.59E1,3.895631E-1,2.8786612E-1,2.066E3,-2.589857E-3,2.3661692E-2,-1.9364322E-2,-9.844488E-3,9.265001E-3,2.1732327E-2,-1.6340718E-2,4.1567828E-3],"split_indices":[16,4,4,17,10,6,18,0,0,0,0,0,0,0,0],"split_type":[0,0,0,0,0,0,0,0,0,0,0,0,0,0,0],"sum_hessian":[3.692927E2,2.143733E2,1.5491937E2,1.3453204E2,7.984128E1,9.0896774E1,6.40226E1,1.2585298E2,8.679051E0,5.6618317E1,2.3222958E1,5.7419136E1,3.3477642E1,9.280352E0,5.474225E1],"tree_param":{"num_deleted":"0","num_feature":"19","num_nodes":"15","size_leaf_vector":"1"}},{"base_weights":[9.777224E-3,-4.7511926E-1,3.343002E-1,-9.303243E-1,-2.6454088E-1,1.026108E0,1.682728E-1,-2.1082513E-2,-1.0564401E-2,-9.074044E-3,8.7005235E-3,1.4867234E-2,2.9580325E-2,-7.861508E-3,8.039905E-3],"categories":[],"categories_nodes":[],"categories_segments":[],"categories_sizes":[],"default_left":[0,0,0,0,0,0,0,0,0,0,0,0,0,0,0],"id":51,"left_children":[1,3,5,7,9,11,13,-1,-1,-1,-1,-1,-1,-1,-1],"loss_changes":[5.9325264E1,1.4197151E1,2.57149E1,1.1643181E0,1.1821867E1,4.817978E0,2.1332752E1,0E0,0E0,0E0,0E0,0E0,0E0,0E0,0E0],"parents":[2147483647,0,0,1,1,2,2,3,3,4,4,5,5,6,6],"right_children":[2,4,6,8,10,12,14,-1,-1,-1,-1,-1,-1,-1,-1],"split_conditions":[4.175388E-1,1.1082694E-1,1.2125E2,1.061E2,9.805E1,4.2086187E-1,6.985E1,-2.1082513E-2,-1.0564401E-2,-9.074044E-3,8.7005235E-3,1.4867234E-2,2.9580325E-2,-7.861508E-3,8.039905E-3],"split_indices":[11,14,18,17,17,7,17,0,0,0,0,0,0,0,0],"split_type":[0,0,0,0,0,0,0,0,0,0,0,0,0,0,0],"sum_hessian":[3.7719864E2,1.5094968E2,2.2624898E2,4.739739E1,1.0355229E2,4.351957E1,1.827294E2,3.9884922E1,7.512466E0,8.328982E1,2.026247E1,2.4152784E1,1.9366785E1,5.152234E1,1.3120706E2],"tree_param":{"num_deleted":"0","num_feature":"19","num_nodes":"15","size_leaf_vector":"1"}},{"base_weights":[-4.399982E-2,-7.005822E-1,2.4454653E-1,-8.44273E-1,-8.523661E-2,-8.021035E-2,4.623423E-1,-2.1445155E-2,-1.350668E-2,5.284764E-3,-1.4413374E-2,1.0064693E-2,-5.649921E-3,1.4176284E-2,5.081081E-3],"categories":[],"categories_nodes":[],"categories_segments":[],"categories_sizes":[],"default_left":[0,0,0,0,0,0,0,0,0,0,0,0,0,0,0],"id":52,"left_children":[1,3,5,7,9,11,13,-1,-1,-1,-1,-1,-1,-1,-1],"loss_changes":[7.0810295E1,9.884186E0,1.8408451E1,2.909668E0,4.547057E0,1.0919569E1,7.0942307E0,0E0,0E0,0E0,0E0,0E0,0E0,0E0,0E0],"parents":[2147483647,0,0,1,1,2,2,3,3,4,4,5,5,6,6],"right_children":[2,4,6,8,10,12,14,-1,-1,-1,-1,-1,-1,-1,-1],"split_conditions":[4.2746615E-1,1.019E2,4.2086187E-1,3.3803663E-1,1.0955E2,2.679803E-1,3.3108714E-1,-2.1445155E-2,-1.350668E-2,5.284764E-3,-1.4413374E-2,1.0064693E-2,-5.649921E-3,1.4176284E-2,5.081081E-3],"split_indices":[14,17,7,15,17,5,12,0,0,0,0,0,0,0,0],"split_type":[0,0,0,0,0,0,0,0,0,0,0,0,0,0,0],"sum_hessian":[3.732038E2,1.1417739E2,2.5902643E2,9.2262E1,2.1915388E1,1.0356231E2,1.5546411E2,4.826309E1,4.3998913E1,1.3805643E1,8.109745E0,2.5839458E1,7.772285E1,7.8411835E1,7.705228E1],"tree_param":{"num_deleted":"0","num_feature":"19","num_nodes":"15","size_leaf_vector":"1"}},{"base_weights":[5.7673573E-2,-6.040431E-1,3.4496912E-1,-9.245647E-1,-3.000289E-1,-1.4219232E-1,5.557822E-1,-2.1044042E-2,-1.0632266E-2,-1.6079381E-2,1.3244309E-3,-1.27734E-2,3.6201207E-3,5.839709E-4,1.4426915E-2],"categories":[],"categories_nodes":[],"categories_segments":[],"categories_sizes":[],"default_left":[0,0,0,0,0,0,0,0,0,0,0,0,0,0,0],"id":53,"left_children":[1,3,5,7,9,11,13,-1,-1,-1,-1,-1,-1,-1,-1],"loss_changes":[7.132323E1,1.0773399E1,2.7006979E1,1.4543266E0,1.0083693E1,1.1678309E1,1.2597282E1,0E0,0E0,0E0,0E0,0E0,0E0,0E0,0E0],"parents":[2147483647,0,0,1,1,2,2,3,3,4,4,5,5,6,6],"right_children":[2,4,6,8,10,12,14,-1,-1,-1,-1,-1,-1,-1,-1],"split_conditions":[4.2746615E-1,1.1082694E-1,3.3803663E-1,4.175388E-1,7.295E1,4.013104E-1,4.175388E-1,-2.1044042E-2,-1.0632266E-2,-1.6079381E-2,1.3244309E-3,-1.27734E-2,3.6201207E-3,5.839709E-4,1.4426915E-2],"split_indices":[14,14,15,11,17,9,11,0,0,0,0,0,0,0,0],"split_type":[0,0,0,0,0,0,0,0,0,0,0,0,0,0,0],"sum_hessian":[3.7547296E2,1.1342637E2,2.620466E2,5.4846004E1,5.8580364E1,7.882195E1,1.8322464E2,4.5703007E1,9.142996E0,2.591624E1,3.2664124E1,3.203818E1,4.6783775E1,3.697306E1,1.4625157E2],"tree_param":{"num_deleted":"0","num_feature":"19","num_nodes":"15","size_leaf_vector":"1"}},{"base_weights":[-4.2545865E-3,-6.4055616E-1,2.810786E-1,-8.868646E-1,-1.24910556E-1,1.6299637E-1,7.1229756E-1,-2.0538287E-2,-8.495482E-3,3.3722348E-3,-9.794781E-3,-3.595789E-3,6.624589E-3,1.907523E-2,2.4905489E-3],"categories":[],"categories_nodes":[],"categories_segments":[],"categories_sizes":[],"default_left":[0,0,0,0,0,0,0,0,0,0,0,0,0,0,0],"id":54,"left_children":[1,3,5,7,9,11,13,-1,-1,-1,-1,-1,-1,-1,-1],"loss_changes":[6.687283E1,1.4266098E1,1.2720634E1,3.1000938E0,3.7039084E0,1.0230986E1,6.094391E0,0E0,0E0,0E0,0E0,0E0,0E0,0E0,0E0],"parents":[2147483647,0,0,1,1,2,2,3,3,4,4,5,5,6,6],"right_children":[2,4,6,8,10,12,14,-1,-1,-1,-1,-1,-1,-1,-1],"split_conditions":[4.2746615E-1,4.193779E-1,1E0,1.0445E2,2.6633346E-1,4.193779E-1,2.7897E3,-2.0538287E-2,-8.495482E-3,3.3722348E-3,-9.794781E-3,-3.595789E-3,6.624589E-3,1.907523E-2,2.4905489E-3],"split_indices":[14,8,1,17,0,8,18,0,0,0,0,0,0,0,0],"split_type":[0,0,0,0,0,0,0,0,0,0,0,0,0,0,0],"sum_hessian":[3.6786935E2,1.14135574E2,2.537338E2,7.693979E1,3.7195786E1,1.9960751E2,5.4126274E1,6.419091E1,1.2748875E1,1.9905697E1,1.7290089E1,6.2130154E1,1.3747737E2,4.035141E1,1.3774864E1],"tree_param":{"num_deleted":"0","num_feature":"19","num_nodes":"15","size_leaf_vector":"1"}},{"base_weights":[2.9863764E-2,-5.9718484E-1,3.0917022E-1,-9.0942883E-1,-2.7482888E-1,2.859139E-2,5.264644E-1,-2.1174684E-2,-1.10432E-2,-2.23585E-3,-2.4000734E-2,8.220345E-3,-4.2383373E-3,2.0704368E-2,5.7921386E-3],"categories":[],"categories_nodes":[],"categories_segments":[],"categories_sizes":[],"default_left":[0,0,0,0,0,0,0,0,0,0,0,0,0,0,0],"id":55,"left_children":[1,3,5,7,9,11,13,-1,-1,-1,-1,-1,-1,-1,-1],"loss_changes":[6.549499E1,1.1315498E1,1.56784E1,1.8723335E0,8.051229E0,9.560087E0,1.6500732E1,0E0,0E0,0E0,0E0,0E0,0E0,0E0,0E0],"parents":[2147483647,0,0,1,1,2,2,3,3,4,4,5,5,6,6],"right_children":[2,4,6,8,10,12,14,-1,-1,-1,-1,-1,-1,-1,-1],"split_conditions":[4.2746615E-1,7.43E1,7.07E1,4.193779E-1,7.2E1,1.056E2,1.1E1,-2.1174684E-2,-1.10432E-2,-2.23585E-3,-2.4000734E-2,8.220345E-3,-4.2383373E-3,2.0704368E-2,5.7921386E-3],"split_indices":[14,17,17,8,4,18,4,0,0,0,0,0,0,0,0],"split_type":[0,0,0,0,0,0,0,0,0,0,0,0,0,0,0],"sum_hessian":[3.7432626E2,1.1510173E2,2.5922455E2,5.8105785E1,5.699595E1,1.1359604E2,1.4562851E2,4.5608963E1,1.249682E1,4.7975624E1,9.020324E0,4.4495224E1,6.9100815E1,5.096982E1,9.465868E1],"tree_param":{"num_deleted":"0","num_feature":"19","num_nodes":"15","size_leaf_vector":"1"}},{"base_weights":[7.957904E-3,-4.8838288E-1,2.3746233E-1,-7.5665045E-1,-2.2519417E-1,-5.570944E-2,4.3815205E-1,-1.8946812E-2,-7.2814496E-3,-1.1809918E-2,1.1929949E-3,5.7794424E-3,-6.8973643E-3,1.576816E-2,3.190842E-3],"categories":[],"categories_nodes":[],"categories_segments":[],"categories_sizes":[],"default_left":[0,0,0,0,0,0,0,0,0,0,0,0,0,0,0],"id":56,"left_children":[1,3,5,7,9,11,13,-1,-1,-1,-1,-1,-1,-1,-1],"loss_changes":[4.22265E1,8.040632E0,1.50397625E1,3.1665306E0,5.78548E0,9.311284E0,1.3363369E1,0E0,0E0,0E0,0E0,0E0,0E0,0E0,0E0],"parents":[2147483647,0,0,1,1,2,2,3,3,4,4,5,5,6,6],"right_children":[2,4,6,8,10,12,14,-1,-1,-1,-1,-1,-1,-1,-1],"split_conditions":[4.2746615E-1,1.1082694E-1,4.2086187E-1,9.34E1,7.19E1,6E0,1.4E1,-1.8946812E-2,-7.2814496E-3,-1.1809918E-2,1.1929949E-3,5.7794424E-3,-6.8973643E-3,1.576816E-2,3.190842E-3],"split_indices":[14,14,7,17,17,4,4,0,0,0,0,0,0,0,0],"split_type":[0,0,0,0,0,0,0,0,0,0,0,0,0,0,0],"sum_hessian":[3.7118546E2,1.1705008E2,2.5413538E2,5.753406E1,5.951602E1,1.0281331E2,1.5132207E2,4.1964382E1,1.5569681E1,2.7449308E1,3.206671E1,4.6084957E1,5.6728355E1,7.181841E1,7.950365E1],"tree_param":{"num_deleted":"0","num_feature":"19","num_nodes":"15","size_leaf_vector":"1"}},{"base_weights":[2.2723729E-2,-6.00455E-1,2.844402E-1,-9.604865E-1,-4.447863E-1,-1.0658238E-1,4.380992E-1,-2.220898E-2,-1.5690854E-2,-5.998733E-3,-2.3950191E-2,-3.796589E-5,-1.8849157E-2,1.6165322E-2,4.7531268E-3],"categories":[],"categories_nodes":[],"categories_segments":[],"categories_sizes":[],"default_left":[0,0,0,0,0,0,0,0,0,0,0,0,0,0,0],"id":57,"left_children":[1,3,5,7,9,11,13,-1,-1,-1,-1,-1,-1,-1,-1],"loss_changes":[6.137317E1,5.9091644E0,1.6032309E1,2.767372E-1,8.314465E0,5.977007E0,1.3209557E1,0E0,0E0,0E0,0E0,0E0,0E0,0E0,0E0],"parents":[2147483647,0,0,1,1,2,2,3,3,4,4,5,5,6,6],"right_children":[2,4,6,8,10,12,14,-1,-1,-1,-1,-1,-1,-1,-1],"split_conditions":[4.2746615E-1,4.635E1,4.193779E-1,2.445E1,7.1E1,3.35565E3,8E0,-2.220898E-2,-1.5690854E-2,-5.998733E-3,-2.3950191E-2,-3.796589E-5,-1.8849157E-2,1.6165322E-2,4.7531268E-3],"split_indices":[14,17,8,17,4,18,4,0,0,0,0,0,0,0,0],"split_type":[0,0,0,0,0,0,0,0,0,0,0,0,0,0,0],"sum_hessian":[3.7673288E2,1.1116391E2,2.6556897E2,3.3108486E1,7.805542E1,7.450196E1,1.9106702E2,2.1906282E1,1.1202205E1,6.3836323E1,1.4219097E1,6.605395E1,8.448009E0,7.387485E1,1.1719216E2],"tree_param":{"num_deleted":"0","num_feature":"19","num_nodes":"15","size_leaf_vector":"1"}},{"base_weights":[-5.974785E-2,-7.254575E-1,2.1104214E-1,-9.348616E-1,-5.3029394E-1,-1.9051714E-1,3.9659563E-1,-2.048582E-2,-1.0650774E-2,-7.067936E-3,-2.0265313E-2,-5.539285E-3,1.2717567E-2,1.2897029E-2,-8.4898964E-4],"categories":[],"categories_nodes":[],"categories_segments":[],"categories_sizes":[],"default_left":[0,0,0,0,0,0,0,0,0,0,0,0,0,0,0],"id":58,"left_children":[1,3,5,7,9,11,13,-1,-1,-1,-1,-1,-1,-1,-1],"loss_changes":[6.5974594E1,3.9918633E0,1.9379292E1,5.5885696E-1,4.368087E0,4.7037435E0,1.7088812E1,0E0,0E0,0E0,0E0,0E0,0E0,0E0,0E0],"parents":[2147483647,0,0,1,1,2,2,3,3,4,4,5,5,6,6],"right_children":[2,4,6,8,10,12,14,-1,-1,-1,-1,-1,-1,-1,-1],"split_conditions":[4.2746615E-1,1.1082694E-1,3.3803663E-1,1E0,5.9E1,9.29E1,2.3E1,-2.048582E-2,-1.0650774E-2,-7.067936E-3,-2.0265313E-2,-5.539285E-3,1.2717567E-2,1.2897029E-2,-8.4898964E-4],"split_indices":[14,14,15,1,4,17,4,0,0,0,0,0,0,0,0],"split_type":[0,0,0,0,0,0,0,0,0,0,0,0,0,0,0],"sum_hessian":[3.6532513E2,1.0587505E2,2.5945007E2,5.050461E1,5.5370445E1,8.161028E1,1.778398E2,4.552898E1,4.975628E0,3.871554E1,1.6654902E1,7.4979095E1,6.631182E0,1.18971565E2,5.8868233E1],"tree_param":{"num_deleted":"0","num_feature":"19","num_nodes":"15","size_leaf_vector":"1"}},{"base_weights":[6.1463505E-2,-5.8014035E-1,3.1653255E-1,-2.1859095E-2,-3.907802E-1,3.8136274E-2,5.79362E-1,-1.4641247E-2,-3.0395368E-3,1.2995523E-2,-2.0696933E-3,2.3755541E-2,1.00168735E-2],"categories":[],"categories_nodes":[],"categories_segments":[],"categories_sizes":[],"default_left":[0,0,0,0,0,0,0,0,0,0,0,0,0],"id":59,"left_children":[1,3,5,-1,7,9,11,-1,-1,-1,-1,-1,-1],"loss_changes":[6.1881065E1,9.065758E0,1.9694353E1,0E0,5.5877438E0,1.0620553E1,7.4642563E0,0E0,0E0,0E0,0E0,0E0,0E0],"parents":[2147483647,0,0,1,1,2,2,4,4,5,5,6,6],"right_children":[2,4,6,-1,8,10,12,-1,-1,-1,-1,-1,-1],"split_conditions":[4.2746615E-1,4.11E1,4.5742995E-1,-2.1859095E-2,1.1082694E-1,2E0,2E0,-1.4641247E-2,-3.0395368E-3,1.2995523E-2,-2.0696933E-3,2.3755541E-2,1.00168735E-2],"split_indices":[14,17,16,0,14,4,4,0,0,0,0,0,0],"split_type":[0,0,0,0,0,0,0,0,0,0,0,0,0],"sum_hessian":[3.7848065E2,1.0740813E2,2.710725E2,3.0879206E1,7.652892E1,1.3206038E2,1.3901213E2,3.3613155E1,4.2915764E1,2.5469893E1,1.06590485E2,2.1273724E1,1.1773841E2],"tree_param":{"num_deleted":"0","num_feature":"19","num_nodes":"13","size_leaf_vector":"1"}},{"base_weights":[-1.3051993E-2,-6.047084E-1,2.2350913E-1,-7.752442E-1,-7.754343E-2,-2.553253E-1,4.003988E-1,-1.9279385E-2,-8.7161865E-3,8.432634E-3,-1.3904571E-2,-1.5364707E-3,-1.4873494E-2,-3.1809185E-3,1.1121405E-2],"categories":[],"categories_nodes":[],"categories_segments":[],"categories_sizes":[],"default_left":[0,0,0,0,0,0,0,0,0,0,0,0,0,0,0],"id":60,"left_children":[1,3,5,7,9,11,13,-1,-1,-1,-1,-1,-1,-1,-1],"loss_changes":[5.218125E1,9.38792E0,2.2531406E1,3.8429909E0,7.4641294E0,5.712306E0,1.4001556E1,0E0,0E0,0E0,0E0,0E0,0E0,0E0,0E0],"parents":[2147483647,0,0,1,1,2,2,3,3,4,4,5,5,6,6],"right_children":[2,4,6,8,10,12,14,-1,-1,-1,-1,-1,-1,-1,-1],"split_conditions":[4.2746615E-1,3.895631E-1,4.175388E-1,9.915E1,5.7E1,2.4E1,4.193779E-1,-1.9279385E-2,-8.7161865E-3,8.432634E-3,-1.3904571E-2,-1.5364707E-3,-1.4873494E-2,-3.1809185E-3,1.1121405E-2],"split_indices":[14,10,11,17,4,4,8,0,0,0,0,0,0,0,0],"split_type":[0,0,0,0,0,0,0,0,0,0,0,0,0,0,0],"sum_hessian":[3.7219464E2,1.0658154E2,2.656131E2,8.020291E1,2.6378632E1,7.1305115E1,1.9430798E2,5.684962E1,2.335329E1,1.4286319E1,1.2092312E1,5.1243214E1,2.0061903E1,3.6640175E1,1.576678E2],"tree_param":{"num_deleted":"0","num_feature":"19","num_nodes":"15","size_leaf_vector":"1"}},{"base_weights":[3.0189766E-2,-8.4448826E-1,1.651519E-1,-9.86719E-1,-2.6964772E-1,-2.1214269E-1,3.679586E-1,-1.8730145E-2,-2.3611331E-2,1.3459411E-2,-1.729267E-2,6.07684E-3,-7.232154E-3,1.0433044E-2,-2.5410398E-3],"categories":[],"categories_nodes":[],"categories_segments":[],"categories_sizes":[],"default_left":[0,0,0,0,0,0,0,0,0,0,0,0,0,0,0],"id":61,"left_children":[1,3,5,7,9,11,13,-1,-1,-1,-1,-1,-1,-1,-1],"loss_changes":[4.3500637E1,3.7364693E0,2.4567236E1,4.681778E-2,5.1397634E0,7.444626E0,1.3302456E1,0E0,0E0,0E0,0E0,0E0,0E0,0E0,0E0],"parents":[2147483647,0,0,1,1,2,2,3,3,4,4,5,5,6,6],"right_children":[2,4,6,8,10,12,14,-1,-1,-1,-1,-1,-1,-1,-1],"split_conditions":[1.1082694E-1,1.0405E2,3.3803663E-1,7.03E1,7.03145E3,9.005E1,3.5336E3,-1.8730145E-2,-2.3611331E-2,1.3459411E-2,-1.729267E-2,6.07684E-3,-7.232154E-3,1.0433044E-2,-2.5410398E-3],"split_indices":[14,17,15,17,18,18,18,0,0,0,0,0,0,0,0],"split_type":[0,0,0,0,0,0,0,0,0,0,0,0,0,0,0],"sum_hessian":[3.6979813E2,4.9204105E1,3.2059402E2,3.912502E1,1.0079087E1,1.11689415E2,2.089046E2,2.4329626E1,1.4795392E1,3.6582832E0,6.420804E0,2.2984232E1,8.870518E1,1.6557693E2,4.3327667E1],"tree_param":{"num_deleted":"0","num_feature":"19","num_nodes":"15","size_leaf_vector":"1"}},{"base_weights":[-9.765691E-3,-3.0093387E-1,3.9802772E-1,-6.232519E-1,-5.741119E-2,6.1065537E-1,-1.09192856E-1,9.677806E-4,-1.53021645E-2,-1.5036815E-2,1.8623533E-3,-4.9934955E-4,1.7896852E-2,-1.2959897E-2,2.4124566E-3],"categories":[],"categories_nodes":[],"categories_segments":[],"categories_sizes":[],"default_left":[0,0,0,0,0,0,0,0,0,0,0,0,0,0,0],"id":62,"left_children":[1,3,5,7,9,11,13,-1,-1,-1,-1,-1,-1,-1,-1],"loss_changes":[4.2941643E1,1.6440834E1,1.633565E1,6.593132E0,1.1790874E1,1.6538837E1,5.1443596E0,0E0,0E0,0E0,0E0,0E0,0E0,0E0,0E0],"parents":[2147483647,0,0,1,1,2,2,3,3,4,4,5,5,6,6],"right_children":[2,4,6,8,10,12,14,-1,-1,-1,-1,-1,-1,-1,-1],"split_conditions":[4.5742995E-1,3.3803663E-1,3.2E1,8.34E1,1.1082694E-1,3.3803663E-1,2.8786612E-1,9.677806E-4,-1.53021645E-2,-1.5036815E-2,1.8623533E-3,-4.9934955E-4,1.7896852E-2,-1.2959897E-2,2.4124566E-3],"split_indices":[16,15,4,18,14,15,6,0,0,0,0,0,0,0,0],"split_type":[0,0,0,0,0,0,0,0,0,0,0,0,0,0,0],"sum_hessian":[3.6183286E2,2.1142921E2,1.5040364E2,9.058884E1,1.20840385E2,1.0629298E2,4.4110664E1,1.2107183E1,7.848165E1,2.22089E1,9.8631485E1,2.9128687E1,7.716429E1,1.38038845E1,3.0306782E1],"tree_param":{"num_deleted":"0","num_feature":"19","num_nodes":"15","size_leaf_vector":"1"}},{"base_weights":[-6.4624846E-2,-5.0090736E-1,2.0918165E-1,-6.5869147E-1,-1.4649163E-1,-7.50937E-2,4.4646385E-1,-0E0,-1.5256032E-2,-9.546205E-3,7.4928286E-3,-7.2879978E-3,6.092327E-3,2.228572E-2,7.0170197E-3],"categories":[],"categories_nodes":[],"categories_segments":[],"categories_sizes":[],"default_left":[0,0,0,0,0,0,0,0,0,0,0,0,0,0,0],"id":63,"left_children":[1,3,5,7,9,11,13,-1,-1,-1,-1,-1,-1,-1,-1],"loss_changes":[4.3372753E1,7.651539E0,1.5087536E1,4.384983E0,6.7999787E0,1.0041362E1,8.071327E0,0E0,0E0,0E0,0E0,0E0,0E0,0E0,0E0],"parents":[2147483647,0,0,1,1,2,2,3,3,4,4,5,5,6,6],"right_children":[2,4,6,8,10,12,14,-1,-1,-1,-1,-1,-1,-1,-1],"split_conditions":[4.193779E-1,3.895631E-1,4.5742995E-1,2.44E1,4.5742995E-1,2.8786612E-1,8.025E1,-0E0,-1.5256032E-2,-9.546205E-3,7.4928286E-3,-7.2879978E-3,6.092327E-3,2.228572E-2,7.0170197E-3],"split_indices":[8,10,16,18,16,6,18,0,0,0,0,0,0,0,0],"split_type":[0,0,0,0,0,0,0,0,0,0,0,0,0,0,0],"sum_hessian":[3.6251962E2,1.4010457E2,2.2241507E2,9.6498695E1,4.3605873E1,1.0075281E2,1.2166226E2,9.037089E0,8.746161E1,2.7320604E1,1.6285269E1,5.8093884E1,4.2658924E1,1.840132E1,1.0326094E2],"tree_param":{"num_deleted":"0","num_feature":"19","num_nodes":"15","size_leaf_vector":"1"}},{"base_weights":[-1.0203117E-2,-5.642405E-1,2.1563795E-1,-8.9606136E-1,-3.081528E-1,8.742743E-2,6.297365E-1,-2.2986572E-2,-1.7100515E-2,-1.48623735E-2,5.724182E-4,-5.192864E-3,5.671787E-3,1.797651E-2,-1.5619581E-3],"categories":[],"categories_nodes":[],"categories_segments":[],"categories_sizes":[],"default_left":[0,0,0,0,0,0,0,0,0,0,0,0,0,0,0],"id":64,"left_children":[1,3,5,7,9,11,13,-1,-1,-1,-1,-1,-1,-1,-1],"loss_changes":[4.5508602E1,8.684143E0,1.3515318E1,2.9753876E-1,8.197977E0,1.208588E1,9.854176E0,0E0,0E0,0E0,0E0,0E0,0E0,0E0,0E0],"parents":[2147483647,0,0,1,1,2,2,3,3,4,4,5,5,6,6],"right_children":[2,4,6,8,10,12,14,-1,-1,-1,-1,-1,-1,-1,-1],"split_conditions":[4.2746615E-1,6.51E1,1E0,1.6157556E-1,1.1082694E-1,3.3803663E-1,2.7278E3,-2.2986572E-2,-1.7100515E-2,-1.48623735E-2,5.724182E-4,-5.192864E-3,5.671787E-3,1.797651E-2,-1.5619581E-3],"split_indices":[14,17,1,16,14,15,18,0,0,0,0,0,0,0,0],"split_type":[0,0,0,0,0,0,0,0,0,0,0,0,0,0,0],"sum_hessian":[3.6306522E2,1.05428055E2,2.5763718E2,4.553228E1,5.9895775E1,1.9715074E2,6.0486435E1,1.2308147E1,3.3224133E1,2.7614967E1,3.2280807E1,6.91989E1,1.27951836E2,4.5977436E1,1.4509E1],"tree_param":{"num_deleted":"0","num_feature":"19","num_nodes":"15","size_leaf_vector":"1"}},{"base_weights":[-1.7529124E-2,-2.8845784E-1,3.3885548E-1,-6.8616027E-1,-1.1245642E-1,1.0197878E0,2.3585702E-1,6.217888E-4,-1.630357E-2,-1.4409698E-2,-0E0,1.0328592E-2,2.3305012E-2,-3.8056378E-3,8.543198E-3],"categories":[],"categories_nodes":[],"categories_segments":[],"categories_sizes":[],"default_left":[0,0,0,0,0,0,0,0,0,0,0,0,0,0,0],"id":65,"left_children":[1,3,5,7,9,11,13,-1,-1,-1,-1,-1,-1,-1,-1],"loss_changes":[3.4948677E1,1.4241629E1,1.065547E1,4.2612553E0,9.265156E0,6.0409737E-1,9.763096E0,0E0,0E0,0E0,0E0,0E0,0E0,0E0,0E0],"parents":[2147483647,0,0,1,1,2,2,3,3,4,4,5,5,6,6],"right_children":[2,4,6,8,10,12,14,-1,-1,-1,-1,-1,-1,-1,-1],"split_conditions":[4.5742995E-1,3.1352717E-1,2E0,4E0,1.1082694E-1,3.1352717E-1,4.2086187E-1,6.217888E-4,-1.630357E-2,-1.4409698E-2,-0E0,1.0328592E-2,2.3305012E-2,-3.8056378E-3,8.543198E-3],"split_indices":[16,3,4,4,14,3,7,0,0,0,0,0,0,0,0],"split_type":[0,0,0,0,0,0,0,0,0,0,0,0,0,0,0],"sum_hessian":[3.620673E2,2.0605794E2,1.5600934E2,6.2814648E1,1.4324329E2,2.020278E1,1.3580656E2,6.802313E0,5.6012337E1,2.3474049E1,1.1976924E2,3.3468237E0,1.6855955E1,3.9151867E1,9.66547E1],"tree_param":{"num_deleted":"0","num_feature":"19","num_nodes":"15","size_leaf_vector":"1"}},{"base_weights":[6.9387453E-3,-4.6653184E-1,2.89341E-1,-7.8493243E-1,-1.8154024E-1,-7.955294E-1,3.4552908E-1,-1.8458102E-2,-9.051117E-3,7.1983384E-3,-5.9897886E-3,-2.126023E-2,-2.7872461E-3,1.1044586E-2,2.8340681E-3],"categories":[],"categories_nodes":[],"categories_segments":[],"categories_sizes":[],"default_left":[0,0,0,0,0,0,0,0,0,0,0,0,0,0,0],"id":66,"left_children":[1,3,5,7,9,11,13,-1,-1,-1,-1,-1,-1,-1,-1],"loss_changes":[4.9400906E1,1.228817E1,1.4035795E1,1.8719864E0,3.976307E0,1.3590851E0,8.252535E0,0E0,0E0,0E0,0E0,0E0,0E0,0E0,0E0],"parents":[2147483647,0,0,1,1,2,2,3,3,4,4,5,5,6,6],"right_children":[2,4,6,8,10,12,14,-1,-1,-1,-1,-1,-1,-1,-1],"split_conditions":[4.193779E-1,4.2746615E-1,1.1082694E-1,4.013104E-1,2E0,4.175388E-1,1.6E1,-1.8458102E-2,-9.051117E-3,7.1983384E-3,-5.9897886E-3,-2.126023E-2,-2.7872461E-3,1.1044586E-2,2.8340681E-3],"split_indices":[8,14,14,9,4,11,4,0,0,0,0,0,0,0,0],"split_type":[0,0,0,0,0,0,0,0,0,0,0,0,0,0,0],"sum_hessian":[3.6975854E2,1.3784393E2,2.3191461E2,6.472559E1,7.311834E1,1.1218015E1,2.206966E2,5.0513336E1,1.42122555E1,1.1730333E1,6.138801E1,8.182339E0,3.0356758E0,1.1808216E2,1.02614426E2],"tree_param":{"num_deleted":"0","num_feature":"19","num_nodes":"15","size_leaf_vector":"1"}},{"base_weights":[-1.0233648E-1,-6.700565E-1,1.3467443E-1,-9.221961E-1,-4.3592444E-1,-1.9767311E-1,2.889261E-1,-2.0917393E-2,-7.7505377E-3,-1.1717894E-2,-4.8563187E-4,-5.6892238E-3,6.7159333E-3,1.0102526E-2,2.2782928E-3],"categories":[],"categories_nodes":[],"categories_segments":[],"categories_sizes":[],"default_left":[0,0,0,0,0,0,0,0,0,0,0,0,0,0,0],"id":67,"left_children":[1,3,5,7,9,11,13,-1,-1,-1,-1,-1,-1,-1,-1],"loss_changes":[4.8891914E1,6.0080795E0,1.3115209E1,1.8011475E0,2.701068E0,3.0537329E0,5.9418E0,0E0,0E0,0E0,0E0,0E0,0E0,0E0,0E0],"parents":[2147483647,0,0,1,1,2,2,3,3,4,4,5,5,6,6],"right_children":[2,4,6,8,10,12,14,-1,-1,-1,-1,-1,-1,-1,-1],"split_conditions":[4.2746615E-1,1.1082694E-1,3.3803663E-1,4.5742995E-1,5.329E3,1E0,3.3108714E-1,-2.0917393E-2,-7.7505377E-3,-1.1717894E-2,-4.8563187E-4,-5.6892238E-3,6.7159333E-3,1.0102526E-2,2.2782928E-3],"split_indices":[14,14,15,16,18,1,12,0,0,0,0,0,0,0,0],"split_type":[0,0,0,0,0,0,0,0,0,0,0,0,0,0,0],"sum_hessian":[3.6244614E2,1.0702873E2,2.554174E2,5.105922E1,5.5969513E1,8.049946E1,1.7491794E2,4.460258E1,6.456638E0,4.2723995E1,1.324552E1,7.08776E1,9.621858E0,8.396013E1,9.095782E1],"tree_param":{"num_deleted":"0","num_feature":"19","num_nodes":"15","size_leaf_vector":"1"}},{"base_weights":[-4.407687E-2,-8.3924186E-1,7.683624E-2,-9.7444427E-1,-4.8588637E-1,-2.4234614E-1,2.4387854E-1,-2.2695795E-2,-1.7085442E-2,-0E0,-2.0409416E-2,1.2199052E-3,-8.6564915E-3,2.8238245E-4,9.307924E-3],"categories":[],"categories_nodes":[],"categories_segments":[],"categories_sizes":[],"default_left":[0,0,0,0,0,0,0,0,0,0,0,0,0,0,0],"id":68,"left_children":[1,3,5,7,9,11,13,-1,-1,-1,-1,-1,-1,-1,-1],"loss_changes":[3.4272064E1,1.9142113E0,1.6400772E1,1.4209747E-1,3.0598762E0,5.4642406E0,9.213842E0,0E0,0E0,0E0,0E0,0E0,0E0,0E0,0E0],"parents":[2147483647,0,0,1,1,2,2,3,3,4,4,5,5,6,6],"right_children":[2,4,6,8,10,12,14,-1,-1,-1,-1,-1,-1,-1,-1],"split_conditions":[1.1082694E-1,9.34E1,3.3803663E-1,3.48035E3,7.3209E3,2.4515E2,4.5742995E-1,-2.2695795E-2,-1.7085442E-2,-0E0,-2.0409416E-2,1.2199052E-3,-8.6564915E-3,2.8238245E-4,9.307924E-3],"split_indices":[14,17,15,18,18,18,16,0,0,0,0,0,0,0,0],"split_type":[0,0,0,0,0,0,0,0,0,0,0,0,0,0,0],"sum_hessian":[3.5464893E2,4.7055153E1,3.0759378E2,3.356257E1,1.3492585E1,1.0520538E2,2.023884E2,1.921946E1,1.4343108E1,6.8970304E0,6.595555E0,3.7571407E1,6.763398E1,9.452385E1,1.07864555E2],"tree_param":{"num_deleted":"0","num_feature":"19","num_nodes":"15","size_leaf_vector":"1"}},{"base_weights":[7.3057885E-4,-4.553951E-1,2.6726025E-1,-7.1917224E-1,-1.9454344E-1,-2.89573E-1,4.0321314E-1,-1.6948534E-2,-5.9706075E-3,-9.111943E-3,-3.6113907E-4,4.82507E-3,-1.0452153E-2,3.151657E-5,1.2074975E-2],"categories":[],"categories_nodes":[],"categories_segments":[],"categories_sizes":[],"default_left":[0,0,0,0,0,0,0,0,0,0,0,0,0,0,0],"id":69,"left_children":[1,3,5,7,9,11,13,-1,-1,-1,-1,-1,-1,-1,-1],"loss_changes":[4.3010017E1,8.757023E0,1.6971615E1,2.2315598E0,2.7017274E0,4.7881474E0,1.2349026E1,0E0,0E0,0E0,0E0,0E0,0E0,0E0,0E0],"parents":[2147483647,0,0,1,1,2,2,3,3,4,4,5,5,6,6],"right_children":[2,4,6,8,10,12,14,-1,-1,-1,-1,-1,-1,-1,-1],"split_conditions":[4.193779E-1,4.2746615E-1,3.1352717E-1,1.0265E2,3.02E1,5.3555E2,1.9284603E-1,-1.6948534E-2,-5.9706075E-3,-9.111943E-3,-3.6113907E-4,4.82507E-3,-1.0452153E-2,3.151657E-5,1.2074975E-2],"split_indices":[8,14,3,17,17,18,16,0,0,0,0,0,0,0,0],"split_type":[0,0,0,0,0,0,0,0,0,0,0,0,0,0,0],"sum_hessian":[3.5412888E2,1.3029402E2,2.2383485E2,6.43467E1,6.594732E1,4.3596363E1,1.802385E2,5.3000107E1,1.1346599E1,2.7487894E1,3.8459423E1,1.21789055E1,3.141746E1,5.451392E1,1.2572457E2],"tree_param":{"num_deleted":"0","num_feature":"19","num_nodes":"15","size_leaf_vector":"1"}},{"base_weights":[-5.3684212E-2,-5.9185356E-1,1.4815027E-1,-8.911921E-1,-2.3241769E-1,-1.5322165E-1,3.5487166E-1,-2.105161E-2,-1.5367713E-2,-1.2741147E-2,5.059012E-4,-1.2690862E-2,-0E0,1.0968675E-2,-1.4082146E-3],"categories":[],"categories_nodes":[],"categories_segments":[],"categories_sizes":[],"default_left":[0,0,0,0,0,0,0,0,0,0,0,0,0,0,0],"id":70,"left_children":[1,3,5,7,9,11,13,-1,-1,-1,-1,-1,-1,-1,-1],"loss_changes":[3.924119E1,1.0351078E1,1.6353106E1,5.542679E-1,4.474955E0,7.347546E0,1.1140774E1,0E0,0E0,0E0,0E0,0E0,0E0,0E0,0E0],"parents":[2147483647,0,0,1,1,2,2,3,3,4,4,5,5,6,6],"right_children":[2,4,6,8,10,12,14,-1,-1,-1,-1,-1,-1,-1,-1],"split_conditions":[4.2746615E-1,8.19E1,4.2086187E-1,3.3803663E-1,1.1082694E-1,3.1352717E-1,2.92975E3,-2.105161E-2,-1.5367713E-2,-1.2741147E-2,5.059012E-4,-1.2690862E-2,-0E0,1.0968675E-2,-1.4082146E-3],"split_indices":[14,17,7,15,14,3,18,0,0,0,0,0,0,0,0],"split_type":[0,0,0,0,0,0,0,0,0,0,0,0,0,0,0],"sum_hessian":[3.6033038E2,9.858452E1,2.6174585E2,5.3440502E1,4.5144012E1,1.0604603E2,1.5569983E2,3.0442183E1,2.2998322E1,1.8698092E1,2.6445919E1,2.6877459E1,7.916857E1,1.11754456E2,4.3945374E1],"tree_param":{"num_deleted":"0","num_feature":"19","num_nodes":"15","size_leaf_vector":"1"}},{"base_weights":[-6.932869E-2,-3.4659213E-1,2.9459754E-1,-8.712975E-1,-2.2053798E-1,1.017937E0,1.7991477E-1,-2.0106642E-2,-0E0,-8.078873E-3,2.266939E-3,1.8082947E-2,2.8760374E-2,-6.892609E-3,7.02892E-3],"categories":[],"categories_nodes":[],"categories_segments":[],"categories_sizes":[],"default_left":[0,0,0,0,0,0,0,0,0,0,0,0,0,0,0],"id":71,"left_children":[1,3,5,7,9,11,13,-1,-1,-1,-1,-1,-1,-1,-1],"loss_changes":[3.6410553E1,1.3316252E1,1.2637233E1,2.9623184E0,9.024414E0,6.45031E-1,1.0620012E1,0E0,0E0,0E0,0E0,0E0,0E0,0E0,0E0],"parents":[2147483647,0,0,1,1,2,2,3,3,4,4,5,5,6,6],"right_children":[2,4,6,8,10,12,14,-1,-1,-1,-1,-1,-1,-1,-1],"split_conditions":[4.5742995E-1,1.1082694E-1,2E0,1E0,8.025E1,7.57E1,3.3803663E-1,-2.0106642E-2,-0E0,-8.078873E-3,2.266939E-3,1.8082947E-2,2.8760374E-2,-6.892609E-3,7.02892E-3],"split_indices":[16,14,4,1,17,17,15,0,0,0,0,0,0,0,0],"split_type":[0,0,0,0,0,0,0,0,0,0,0,0,0,0,0],"sum_hessian":[3.6072015E2,2.0509222E2,1.5562794E2,3.937289E1,1.6571933E2,2.1021824E1,1.3460612E2,3.576381E1,3.6090786E0,1.1088182E2,5.4837505E1,1.5036101E1,5.985722E0,3.1123957E1,1.0348217E2],"tree_param":{"num_deleted":"0","num_feature":"19","num_nodes":"15","size_leaf_vector":"1"}},{"base_weights":[-1.8367108E-2,-5.487311E-1,1.7424624E-1,-6.908502E-1,-1.7566133E-2,3.6916457E-2,5.440035E-1,-1.988053E-2,-9.960249E-3,8.076477E-3,-1.9173209E-2,-6.8501597E-3,3.325887E-3,-0E0,1.5155783E-2],"categories":[],"categories_nodes":[],"categories_segments":[],"categories_sizes":[],"default_left":[0,0,0,0,0,0,0,0,0,0,0,0,0,0,0],"id":72,"left_children":[1,3,5,7,9,11,13,-1,-1,-1,-1,-1,-1,-1,-1],"loss_changes":[3.7363438E1,7.2016277E0,1.3445194E1,3.925518E0,7.6738925E0,8.600059E0,7.0958977E0,0E0,0E0,0E0,0E0,0E0,0E0,0E0,0E0],"parents":[2147483647,0,0,1,1,2,2,3,3,4,4,5,5,6,6],"right_children":[2,4,6,8,10,12,14,-1,-1,-1,-1,-1,-1,-1,-1],"split_conditions":[4.2746615E-1,1.033E2,8.95E1,1.1082694E-1,4.175388E-1,4.175388E-1,2.8786612E-1,-1.988053E-2,-9.960249E-3,8.076477E-3,-1.9173209E-2,-6.8501597E-3,3.325887E-3,-0E0,1.5155783E-2],"split_indices":[14,17,17,14,11,11,6,0,0,0,0,0,0,0,0],"split_type":[0,0,0,0,0,0,0,0,0,0,0,0,0,0,0],"sum_hessian":[3.6491025E2,9.753079E1,2.6737946E2,7.660493E1,2.0925867E1,1.9541924E2,7.196023E1,3.4516567E1,4.2088356E1,1.4267222E1,6.658644E0,4.85266E1,1.4689264E2,1.7562143E1,5.4398083E1],"tree_param":{"num_deleted":"0","num_feature":"19","num_nodes":"15","size_leaf_vector":"1"}},{"base_weights":[-5.8068134E-2,-5.591016E-1,1.3535888E-1,-7.29695E-1,-2.1483175E-1,-7.4522994E-2,3.383424E-1,-1.2363418E-2,-1.8529141E-2,-1.0615262E-2,1.1197976E-2,-3.4830347E-3,1.0417588E-2,1.0428887E-2,-1.5661893E-3],"categories":[],"categories_nodes":[],"categories_segments":[],"categories_sizes":[],"default_left":[0,0,0,0,0,0,0,0,0,0,0,0,0,0,0],"id":73,"left_children":[1,3,5,7,9,11,13,-1,-1,-1,-1,-1,-1,-1,-1],"loss_changes":[3.3984318E1,5.5237484E0,1.0793911E1,1.0616646E0,7.1498976E0,6.3697624E0,8.531037E0,0E0,0E0,0E0,0E0,0E0,0E0,0E0,0E0],"parents":[2147483647,0,0,1,1,2,2,3,3,4,4,5,5,6,6],"right_children":[2,4,6,8,10,12,14,-1,-1,-1,-1,-1,-1,-1,-1],"split_conditions":[4.2746615E-1,5.1246E3,4.5742995E-1,3.3803663E-1,3.2771084E-1,1E0,2.9E1,-1.2363418E-2,-1.8529141E-2,-1.0615262E-2,1.1197976E-2,-3.4830347E-3,1.0417588E-2,1.0428887E-2,-1.5661893E-3],"split_indices":[14,18,16,15,2,1,4,0,0,0,0,0,0,0,0],"split_type":[0,0,0,0,0,0,0,0,0,0,0,0,0,0,0],"sum_hessian":[3.4966528E2,9.771706E1,2.5194821E2,6.489501E1,3.2822052E1,1.2331971E2,1.286285E2,3.468559E1,3.0209421E1,2.3850573E1,8.9714775E0,1.0663535E2,1.6684357E1,9.330727E1,3.532123E1],"tree_param":{"num_deleted":"0","num_feature":"19","num_nodes":"15","size_leaf_vector":"1"}},{"base_weights":[-6.595846E-2,-6.3481796E-1,1.4043817E-1,-7.853178E-1,-1.3248082E-1,5.767782E-1,5.0459914E-2,-2.0958474E-2,-1.2892788E-2,1.2664709E-2,-1.5054146E-2,7.2151367E-3,1.8274192E-2,-4.8960117E-3,4.659737E-3],"categories":[],"categories_nodes":[],"categories_segments":[],"categories_sizes":[],"default_left":[0,0,0,0,0,0,0,0,0,0,0,0,0,0,0],"id":74,"left_children":[1,3,5,7,9,11,13,-1,-1,-1,-1,-1,-1,-1,-1],"loss_changes":[4.340862E1,7.2351913E0,1.0469187E1,2.3827782E0,9.957605E0,2.8594484E0,1.0936871E1,0E0,0E0,0E0,0E0,0E0,0E0,0E0,0E0],"parents":[2147483647,0,0,1,1,2,2,3,3,4,4,5,5,6,6],"right_children":[2,4,6,8,10,12,14,-1,-1,-1,-1,-1,-1,-1,-1],"split_conditions":[4.2746615E-1,1.0135E2,2E0,1.1082694E-1,6.2E1,6.39E1,7.015E1,-2.0958474E-2,-1.2892788E-2,1.2664709E-2,-1.5054146E-2,7.2151367E-3,1.8274192E-2,-4.8960117E-3,4.659737E-3],"split_indices":[14,17,4,14,4,17,17,0,0,0,0,0,0,0,0],"split_type":[0,0,0,0,0,0,0,0,0,0,0,0,0,0,0],"sum_hessian":[3.6875134E2,9.8463844E1,2.7028748E2,7.541467E1,2.3049175E1,4.577193E1,2.2451556E2,3.2893932E1,4.2520737E1,1.0034791E1,1.3014383E1,2.5989979E1,1.978195E1,8.411038E1,1.4040518E2],"tree_param":{"num_deleted":"0","num_feature":"19","num_nodes":"15","size_leaf_vector":"1"}},{"base_weights":[-6.748668E-2,-9.6561384E-1,5.247349E-2,-2.159276E-2,-7.241484E-1,-2.1114631E-1,2.5402072E-1,-6.751052E-3,-2.0070603E-2,1.0919004E-3,-9.969604E-3,-3.3466684E-4,9.58561E-3],"categories":[],"categories_nodes":[],"categories_segments":[],"categories_sizes":[],"default_left":[0,0,0,0,0,0,0,0,0,0,0,0,0],"id":75,"left_children":[1,3,5,-1,7,9,11,-1,-1,-1,-1,-1,-1],"loss_changes":[3.9273033E1,2.5830078E-1,1.6993357E1,0E0,6.173444E-1,9.68845E0,1.0050058E1,0E0,0E0,0E0,0E0,0E0,0E0],"parents":[2147483647,0,0,1,1,2,2,4,4,5,5,6,6],"right_children":[2,4,6,-1,8,10,12,-1,-1,-1,-1,-1,-1],"split_conditions":[1.1082694E-1,1.0265E2,4.2086187E-1,-2.159276E-2,1.6157556E-1,1E1,4.5742995E-1,-6.751052E-3,-2.0070603E-2,1.0919004E-3,-9.969604E-3,-3.3466684E-4,9.58561E-3],"split_indices":[14,17,7,0,16,4,16,0,0,0,0,0,0],"split_type":[0,0,0,0,0,0,0,0,0,0,0,0,0],"sum_hessian":[3.6258508E2,4.2943016E1,3.1964206E2,3.3228683E1,9.714333E0,1.3800533E2,1.8163675E2,3.9200094E0,5.7943234E0,6.868846E1,6.9316864E1,7.745676E1,1.0417999E2],"tree_param":{"num_deleted":"0","num_feature":"19","num_nodes":"13","size_leaf_vector":"1"}},{"base_weights":[2.9246816E-2,-4.8640588E-1,2.2029191E-1,-8.10252E-1,-2.2702709E-1,-1.8168606E-1,3.668762E-1,-1.8959139E-2,-8.779095E-3,-2.2462867E-2,